{"learner":{"attributes":{"scikit_learn":"{\"_estimator_type\": \"classifier\"}"},"feature_names":[],"feature_types":[],"gradient_booster":{"model":{"cats":{"enc":[],"feature_segments":[],"sorted_idx":[]},"gbtree_model_param":{"num_parallel_tree":"1","num_trees":"500"},"iteration_indptr":[0,1,2,3,4,5,6,7,8,9,10,11,12,13,14,15,16,17,18,19,20,21,22,23,24,25,26,27,28,29,30,31,32,33,34,35,36,37,38,39,40,41,42,43,44,45,46,47,48,49,50,51,52,53,54,55,56,57,58,59,60,61,62,63,64,65,66,67,68,69,70,71,72,73,74,75,76,77,78,79,80,81,82,83,84,85,86,87,88,89,90,91,92,93,94,95,96,97,98,99,100,101,102,103,104,105,106,107,108,109,110,111,112,113,114,115,116,117,118,119,120,121,122,123,124,125,126,127,128,129,130,131,132,133,134,135,136,137,138,139,140,141,142,143,144,145,146,147,148,149,150,151,152,153,154,155,156,157,158,159,160,161,162,163,164,165,166,167,168,169,170,171,172,173,174,175,176,177,178,179,180,181,182,183,184,185,186,187,188,189,190,191,192,193,194,195,196,197,198,199,200,201,202,203,204,205,206,207,208,209,210,211,212,213,214,215,216,217,218,219,220,221,222,223,224,225,226,227,228,229,230,231,232,233,234,235,236,237,238,239,240,241,242,243,244,245,246,247,248,249,250,251,252,253,254,255,256,257,258,259,260,261,262,263,264,265,266,267,268,269,270,271,272,273,274,275,276,277,278,279,280,281,282,283,284,285,286,287,288,289,290,291,292,293,294,295,296,297,298,299,300,301,302,303,304,305,306,307,308,309,310,311,312,313,314,315,316,317,318,319,320,321,322,323,324,325,326,327,328,329,330,331,332,333,334,335,336,337,338,339,340,341,342,343,344,345,346,347,348,349,350,351,352,353,354,355,356,357,358,359,360,361,362,363,364,365,366,367,368,369,370,371,372,373,374,375,376,377,378,379,380,381,382,383,384,385,386,387,388,389,390,391,392,393,394,395,396,397,398,399,400,401,402,403,404,405,406,407,408,409,410,411,412,413,414,415,416,417,418,419,420,421,422,423,424,425,426,427,428,429,430,431,432,433,434,435,436,437,438,439,440,441,442,443,444,445,446,447,448,449,450,451,452,453,454,455,456,457,458,459,460,461,462,463,464,465,466,467,468,469,470,471,472,473,474,475,476,477,478,479,480,481,482,483,484,485,486,487,488,489,490,491,492,493,494,495,496,497,498,499,500],"tree_info":[0,0,0,0,0,0,0,0,0,0,0,0,0,0,0,0,0,0,0,0,0,0,0,0,0,0,0,0,0,0,0,0,0,0,0,0,0,0,0,0,0,0,0,0,0,0,0,0,0,0,0,0,0,0,0,0,0,0,0,0,0,0,0,0,0,0,0,0,0,0,0,0,0,0,0,0,0,0,0,0,0,0,0,0,0,0,0,0,0,0,0,0,0,0,0,0,0,0,0,0,0,0,0,0,0,0,0,0,0,0,0,0,0,0,0,0,0,0,0,0,0,0,0,0,0,0,0,0,0,0,0,0,0,0,0,0,0,0,0,0,0,0,0,0,0,0,0,0,0,0,0,0,0,0,0,0,0,0,0,0,0,0,0,0,0,0,0,0,0,0,0,0,0,0,0,0,0,0,0,0,0,0,0,0,0,0,0,0,0,0,0,0,0,0,0,0,0,0,0,0,0,0,0,0,0,0,0,0,0,0,0,0,0,0,0,0,0,0,0,0,0,0,0,0,0,0,0,0,0,0,0,0,0,0,0,0,0,0,0,0,0,0,0,0,0,0,0,0,0,0,0,0,0,0,0,0,0,0,0,0,0,0,0,0,0,0,0,0,0,0,0,0,0,0,0,0,0,0,0,0,0,0,0,0,0,0,0,0,0,0,0,0,0,0,0,0,0,0,0,0,0,0,0,0,0,0,0,0,0,0,0,0,0,0,0,0,0,0,0,0,0,0,0,0,0,0,0,0,0,0,0,0,0,0,0,0,0,0,0,0,0,0,0,0,0,0,0,0,0,0,0,0,0,0,0,0,0,0,0,0,0,0,0,0,0,0,0,0,0,0,0,0,0,0,0,0,0,0,0,0,0,0,0,0,0,0,0,0,0,0,0,0,0,0,0,0,0,0,0,0,0,0,0,0,0,0,0,0,0,0,0,0,0,0,0,0,0,0,0,0,0,0,0,0,0,0,0,0,0,0,0,0,0,0,0,0,0,0,0,0,0,0,0,0,0,0,0,0,0,0,0,0,0,0,0,0,0,0,0,0,0,0,0,0,0,0,0,0,0,0,0,0,0,0,0,0,0,0,0,0,0,0,0,0,0,0,0,0,0,0,0,0,0,0,0,0,0,0,0,0],"trees":[{"base_weights":[-1.2340229E-2,-9.494608E-1,2.5502226E0,-1.0189809E0,2.8407133E-1,5.6895263E-2,2.611897E0,-1.0522008E0,-8.251653E-1,1.8350875E-2,6.768708E-1,1.1101965E-1,1.3184448E-1,-6.7252584E-2,-1.0392694E0,-5.003209E-1,-8.594898E-1,3.708902E-2,-1.9731848E-1,5.366958E-2,4.1115457E-1,-2.295239E-2,-1.0458758E0,-6.365321E-1,-1.3462125E-2,-4.7845047E-2,-7.377566E-1,2.0000322E-2,-5.237565E-1,2.6989703E-3,3.406496E-2,-5.073862E-2,-5.5300143E-2,-2.24362E-2,-3.9557897E-2,-1.14355385E-2,-4.1539952E-2,-2.0151895E-2,1.0020577E-2,-4.4200134E-2,-8.987643E-3],"categories":[],"categories_nodes":[],"categories_segments":[],"categories_sizes":[],"default_left":[0,0,0,0,0,0,0,0,0,0,0,0,0,0,0,0,0,0,0,0,0,0,0,0,0,0,0,0,0,0,0,0,0,0,0,0,0,0,0,0,0],"id":0,"left_children":[1,3,5,7,9,-1,11,13,15,17,19,-1,-1,-1,21,23,25,-1,27,-1,29,-1,31,33,-1,-1,35,37,39,-1,-1,-1,-1,-1,-1,-1,-1,-1,-1,-1,-1],"loss_changes":[7.0268413E3,1.84026E2,6.5276855E1,1.2192139E1,1.2000239E1,0E0,1.4833984E0,5.146118E0,2.931076E0,1.1017735E1,4.448822E0,0E0,0E0,0E0,5.880493E0,8.1067514E-1,2.5104675E0,0E0,3.874384E0,0E0,2.801062E0,0E0,1.9443359E0,1.9374895E-1,0E0,0E0,5.727249E0,2.649847E0,2.5432944E0,0E0,0E0,0E0,0E0,0E0,0E0,0E0,0E0,0E0,0E0,0E0,0E0],"parents":[2147483647,0,0,1,1,2,2,3,3,4,4,6,6,7,7,8,8,9,9,10,10,14,14,15,15,16,16,18,18,20,20,22,22,23,23,26,26,27,27,28,28],"right_children":[2,4,6,8,10,-1,12,14,16,18,20,-1,-1,-1,22,24,26,-1,28,-1,30,-1,32,34,-1,-1,36,38,40,-1,-1,-1,-1,-1,-1,-1,-1,-1,-1,-1,-1],"split_conditions":[5.169075E-1,4.9763578E-1,5.2916664E-1,4.7934303E-1,5.0679857E-1,5.6895263E-2,5.468609E-1,4.3221906E-1,4.804115E-1,4.9890438E-1,5.1008826E-1,1.1101965E-1,1.3184448E-1,-6.7252584E-2,4.3390614E-1,4.7999778E-1,4.8760706E-1,3.708902E-2,5.034894E-1,5.366958E-2,5.129139E-1,-2.295239E-2,4.6450514E-1,4.7962898E-1,-1.3462125E-2,-4.7845047E-2,4.888745E-1,4.9992865E-1,5.047873E-1,2.6989703E-3,3.406496E-2,-5.073862E-2,-5.5300143E-2,-2.24362E-2,-3.9557897E-2,-1.14355385E-2,-4.1539952E-2,-2.0151895E-2,1.0020577E-2,-4.4200134E-2,-8.987643E-3],"split_indices":[0,0,0,0,0,0,0,0,0,0,0,0,0,0,0,0,0,0,0,0,0,0,0,0,0,0,0,0,0,0,0,0,0,0,0,0,0,0,0,0,0],"split_type":[0,0,0,0,0,0,0,0,0,0,0,0,0,0,0,0,0,0,0,0,0,0,0,0,0,0,0,0,0,0,0,0,0,0,0,0,0,0,0,0,0],"sum_hessian":[2.9240984E3,2.141565E3,7.8253357E2,2.0274733E3,1.14091515E2,3.3556328E1,7.4897723E2,1.7270323E3,3.0044098E2,6.867862E1,4.5412895E1,5.033449E1,6.986427E2,6.867862E1,1.6583538E3,3.0200695E1,2.702403E2,1.5212202E1,5.3466415E1,1.7001873E1,2.8411024E1,1.946267E1,1.638891E3,1.7896708E1,1.2303987E1,1.4630559E2,1.239347E2,3.266149E1,2.0804924E1,1.2751405E1,1.5659619E1,1.0919229E3,5.4696814E2,9.843189E0,8.053518E0,1.9686378E1,1.0424832E2,9.395772E0,2.326572E1,9.395772E0,1.1409151E1],"tree_param":{"num_deleted":"0","num_feature":"1","num_nodes":"41","size_leaf_vector":"1"}},{"base_weights":[-1.7463572E-2,-9.2557997E-1,2.2446656E0,-9.951896E-1,-1.6740935E-1,9.604699E-1,1.2000209E-1,-6.903747E-2,-9.806884E-1,-4.3087843E-1,1.3926329E-1,6.8078345E-1,6.050337E-2,-2.8703293E-1,-9.8841727E-1,2.001509E-2,-5.662968E-1,5.683253E-1,-6.868769E-2,5.355644E-2,4.1856045E-1,-2.2624096E-2,-5.4895165E-3,-1.0644968E0,-9.46357E-1,-5.0652933E-1,-7.15255E-1,8.727855E-3,4.321601E-2,-1.7538846E-1,1.835324E-2,5.2001667E-3,3.2127697E-2,-5.201282E-2,-7.2198234E-2,-3.138031E-2,-4.8207957E-2,-3.0825242E-2,-1.9539995E-2,-4.3533802E-2,-2.5834749E-2,5.7197707E-3,-2.5461948E-2],"categories":[],"categories_nodes":[],"categories_segments":[],"categories_sizes":[],"default_left":[0,0,0,0,0,0,0,0,0,0,0,0,0,0,0,0,0,0,0,0,0,0,0,0,0,0,0,0,0,0,0,0,0,0,0,0,0,0,0,0,0,0,0],"id":1,"left_children":[1,3,5,7,9,11,-1,-1,13,15,17,19,-1,21,23,-1,25,27,29,-1,31,-1,-1,33,35,37,39,-1,-1,41,-1,-1,-1,-1,-1,-1,-1,-1,-1,-1,-1,-1,-1],"loss_changes":[6.0453823E3,1.1065466E2,1.6589648E2,9.397827E0,1.4424579E1,5.6441193E0,0E0,0E0,9.6710205E0,1.101767E1,7.4366665E0,4.2578983E0,0E0,5.916581E-1,4.8674316E0,0E0,3.753395E-1,3.0163288E0,2.702376E0,0E0,1.9866347E0,0E0,0E0,4.4367065E0,6.1551514E0,5.5524254E-1,2.0739174E-1,0E0,0E0,4.5330286E0,0E0,0E0,0E0,0E0,0E0,0E0,0E0,0E0,0E0,0E0,0E0,0E0,0E0],"parents":[2147483647,0,0,1,1,2,2,3,3,4,4,5,5,8,8,9,9,10,10,11,11,13,13,14,14,16,16,17,17,18,18,20,20,23,23,24,24,25,25,26,26,29,29],"right_children":[2,4,6,8,10,12,-1,-1,14,16,18,20,-1,22,24,-1,26,28,30,-1,32,-1,-1,34,36,38,40,-1,-1,42,-1,-1,-1,-1,-1,-1,-1,-1,-1,-1,-1,-1,-1],"split_conditions":[5.0679857E-1,4.895031E-1,5.358859E-1,4.3221906E-1,4.9641207E-1,5.169075E-1,1.2000209E-1,-6.903747E-2,4.3390614E-1,4.9007395E-1,4.9890438E-1,5.1008826E-1,6.050337E-2,4.3304995E-1,4.54986E-1,2.001509E-2,4.9434683E-1,4.9763578E-1,5.047873E-1,5.355644E-2,5.129139E-1,-2.2624096E-2,-5.4895165E-3,4.5416728E-1,4.5638183E-1,4.9212167E-1,4.9532902E-1,8.727855E-3,4.321601E-2,5.018553E-1,1.835324E-2,5.2001667E-3,3.2127697E-2,-5.201282E-2,-7.2198234E-2,-3.138031E-2,-4.8207957E-2,-3.0825242E-2,-1.9539995E-2,-4.3533802E-2,-2.5834749E-2,5.7197707E-3,-2.5461948E-2],"split_indices":[0,0,0,0,0,0,0,0,0,0,0,0,0,0,0,0,0,0,0,0,0,0,0,0,0,0,0,0,0,0,0,0,0,0,0,0,0,0,0,0,0,0,0],"split_type":[0,0,0,0,0,0,0,0,0,0,0,0,0,0,0,0,0,0,0,0,0,0,0,0,0,0,0,0,0,0,0,0,0,0,0,0,0,0,0,0,0,0,0],"sum_hessian":[2.9408164E3,2.0988416E3,8.4197485E2,1.9220596E3,1.7678209E2,9.1651375E1,7.503235E2,6.625489E1,1.8558047E3,9.4871185E1,8.19109E1,4.497837E1,4.6673E1,2.087024E1,1.8349344E3,1.3017209E1,8.185397E1,2.6173843E1,5.5737057E1,1.6834187E1,2.8144184E1,9.991072E0,1.0879167E1,6.4462085E2,1.1903136E3,6.1555954E1,2.0298021E1,1.1914056E1,1.4259788E1,4.525353E1,1.0483526E1,1.231474E1,1.5829445E1,6.094317E2,3.518913E1,6.487995E1,1.1254336E3,2.9343878E1,3.221208E1,9.487119E0,1.0810903E1,2.4577492E1,2.0676039E1],"tree_param":{"num_deleted":"0","num_feature":"1","num_nodes":"43","size_leaf_vector":"1"}},{"base_weights":[-2.1079194E-2,-8.878038E-1,2.13515E0,-9.5103884E-1,2.108904E-1,1.1450351E0,1.0980445E-1,-9.812322E-1,-4.9367103E-1,4.4241098E-1,1.3095282E-1,3.0036751E-2,6.659876E-2,-1.0436306E0,-9.4080186E-1,-2.907502E-1,-6.310468E-1,1.7691174E-3,3.89601E-2,-2.2785908E-2,2.9314026E-1,-9.705084E-1,-1.1744348E0,-5.939563E-1,-9.6296364E-1,-5.692606E-1,6.816878E-2,-5.3137046E-1,-8.7906426E-1,-9.544216E-3,4.1159067E-2,4.148969E-1,1.0772803E-3,-5.5231143E-2,-4.0855426E-2,-5.661102E-2,-7.043974E-2,-3.9807484E-2,-1.631205E-2,-6.1712127E-2,-4.7422584E-2,-9.489632E-3,-6.57446E-2,1.2224144E-2,-5.831403E-3,-3.1223614E-2,-8.678233E-3,-6.568032E-2,-2.0908805E-2,8.856123E-3,-2.0073985E-3,9.166588E-3,2.807839E-2],"categories":[],"categories_nodes":[],"categories_segments":[],"categories_sizes":[],"default_left":[0,0,0,0,0,0,0,0,0,0,0,0,0,0,0,0,0,0,0,0,0,0,0,0,0,0,0,0,0,0,0,0,0,0,0,0,0,0,0,0,0,0,0,0,0,0,0,0,0,0,0,0,0],"id":2,"left_children":[1,3,5,7,9,11,-1,13,15,17,19,-1,-1,21,23,25,27,-1,-1,29,31,33,35,37,39,41,43,45,47,-1,49,51,-1,-1,-1,-1,-1,-1,-1,-1,-1,-1,-1,-1,-1,-1,-1,-1,-1,-1,-1,-1,-1],"loss_changes":[5.4285894E3,1.4414844E2,4.773633E1,2.6572998E1,2.044056E0,4.3257523E0,0E0,3.6524658E0,3.2550411E0,3.9108062E0,2.1472359E0,0E0,0E0,5.680969E0,8.074585E0,5.2018404E0,1.3301258E0,0E0,0E0,4.9155703E-1,1.3749032E0,8.626312E0,8.876648E-1,3.538391E0,2.9854736E0,8.009395E0,7.929006E-1,1.7033463E0,3.3186045E0,0E0,3.7657693E-1,8.765521E-1,0E0,0E0,0E0,0E0,0E0,0E0,0E0,0E0,0E0,0E0,0E0,0E0,0E0,0E0,0E0,0E0,0E0,0E0,0E0,0E0,0E0],"parents":[2147483647,0,0,1,1,2,2,3,3,4,4,5,5,7,7,8,8,9,9,10,10,13,13,14,14,15,15,16,16,19,19,20,20,21,21,22,22,23,23,24,24,25,25,26,26,27,27,28,28,30,30,31,31],"right_children":[2,4,6,8,10,12,-1,14,16,18,20,-1,-1,22,24,26,28,-1,-1,30,32,34,36,38,40,42,44,46,48,-1,50,52,-1,-1,-1,-1,-1,-1,-1,-1,-1,-1,-1,-1,-1,-1,-1,-1,-1,-1,-1,-1,-1],"split_conditions":[5.129139E-1,4.9641207E-1,5.2916664E-1,4.8760706E-1,4.9890438E-1,5.169075E-1,1.0980445E-1,4.54986E-1,4.9072433E-1,4.9763578E-1,5.047873E-1,3.0036751E-2,6.659876E-2,4.4831464E-1,4.5638183E-1,4.895031E-1,4.9434683E-1,1.7691174E-3,3.89601E-2,4.9992865E-1,5.1008826E-1,4.4173902E-1,4.5416728E-1,4.5587373E-1,4.576635E-1,4.888745E-1,4.9007395E-1,4.9352345E-1,4.9532902E-1,-9.544216E-3,5.018553E-1,5.0679857E-1,1.0772803E-3,-5.5231143E-2,-4.0855426E-2,-5.661102E-2,-7.043974E-2,-3.9807484E-2,-1.631205E-2,-6.1712127E-2,-4.7422584E-2,-9.489632E-3,-6.57446E-2,1.2224144E-2,-5.831403E-3,-3.1223614E-2,-8.678233E-3,-6.568032E-2,-2.0908805E-2,8.856123E-3,-2.0073985E-3,9.166588E-3,2.807839E-2],"split_indices":[0,0,0,0,0,0,0,0,0,0,0,0,0,0,0,0,0,0,0,0,0,0,0,0,0,0,0,0,0,0,0,0,0,0,0,0,0,0,0,0,0,0,0,0,0,0,0,0,0,0,0,0,0],"split_type":[0,0,0,0,0,0,0,0,0,0,0,0,0,0,0,0,0,0,0,0,0,0,0,0,0,0,0,0,0,0,0,0,0,0,0,0,0,0,0,0,0,0,0,0,0,0,0,0,0,0,0,0,0],"sum_hessian":[2.9027502E3,2.0709094E3,8.3184094E2,1.9583325E3,1.1257694E2,4.9376766E1,7.824642E2,1.8359836E3,1.2234889E2,2.7729742E1,8.48472E1,1.3700239E1,3.5676525E1,7.121189E2,1.1238647E3,5.064963E1,7.1699265E1,1.3055989E1,1.4673754E1,4.3999367E1,4.0847828E1,4.621739E2,2.49945E2,6.9166466E1,1.0546982E3,2.8189434E1,2.24602E1,5.338622E1,1.8313042E1,1.1578004E1,3.2421364E1,2.7839619E1,1.3008211E1,2.432789E2,2.1889499E2,2.1673625E2,3.3208744E1,3.8280815E1,3.0885656E1,4.9288074E1,1.00541016E3,1.9513256E1,8.676178E0,1.1328617E1,1.1131581E1,4.1771824E1,1.1614397E1,8.473633E0,9.839409E0,1.1691742E1,2.0729622E1,1.1668016E1,1.6171602E1],"tree_param":{"num_deleted":"0","num_feature":"1","num_nodes":"53","size_leaf_vector":"1"}},{"base_weights":[-4.544013E-2,-8.8184637E-1,1.9308833E0,-9.489961E-1,-1.6673511E-1,7.9688466E-1,2.0392642E0,-6.614375E-2,-9.347901E-1,-3.705126E-1,1.11903764E-1,5.698251E-1,5.1386755E-2,8.194282E-2,1.031902E-1,-2.4027547E-2,-9.398773E-1,2.8094625E-2,-5.0015736E-1,2.8835488E-2,-1.9180768E-3,3.75635E-2,4.387757E-1,-9.905031E-1,-9.1166586E-1,-3.8276288E-1,-7.308303E-1,-4.472781E-2,1.8601257E-1,1.2304627E-2,2.8401403E-2,-4.8454113E-2,-6.868874E-2,-2.9876426E-2,-4.658742E-2,-2.9463235E-2,-8.808909E-3,-6.317609E-2,-2.4853216E-2,1.9896522E-2,-2.421952E-3],"categories":[],"categories_nodes":[],"categories_segments":[],"categories_sizes":[],"default_left":[0,0,0,0,0,0,0,0,0,0,0,0,0,0,0,0,0,0,0,0,0,0,0,0,0,0,0,0,0,0,0,0,0,0,0,0,0,0,0,0,0],"id":3,"left_children":[1,3,5,7,9,11,13,-1,15,17,19,21,-1,-1,-1,-1,23,-1,25,-1,27,-1,29,31,33,35,37,-1,39,-1,-1,-1,-1,-1,-1,-1,-1,-1,-1,-1,-1],"loss_changes":[4.7562495E3,9.692163E1,1.0353418E2,8.578369E0,9.964109E0,3.41288E0,4.2856445E0,0E0,3.6699219E0,1.2510455E1,3.9470997E0,6.3817596E-1,0E0,0E0,0E0,0E0,1.6148682E0,0E0,2.1397877E0,0E0,1.0384484E1,0E0,5.086546E-1,3.7529297E0,6.6643066E0,2.511798E0,2.9875612E0,0E0,2.5604086E0,0E0,0E0,0E0,0E0,0E0,0E0,0E0,0E0,0E0,0E0,0E0,0E0],"parents":[2147483647,0,0,1,1,2,2,3,3,4,4,5,5,6,6,8,8,9,9,10,10,11,11,16,16,18,18,20,20,22,22,23,23,24,24,25,25,26,26,28,28],"right_children":[2,4,6,8,10,12,14,-1,16,18,20,22,-1,-1,-1,-1,24,-1,26,-1,28,-1,30,32,34,36,38,-1,40,-1,-1,-1,-1,-1,-1,-1,-1,-1,-1,-1,-1],"split_conditions":[5.0679857E-1,4.895031E-1,5.2916664E-1,4.3221906E-1,4.9763578E-1,5.169075E-1,5.468609E-1,-6.614375E-2,4.3390614E-1,4.9007395E-1,4.9890438E-1,5.1008826E-1,5.1386755E-2,8.194282E-2,1.031902E-1,-2.4027547E-2,4.54986E-1,2.8094625E-2,4.9434683E-1,2.8835488E-2,4.9992865E-1,3.75635E-2,5.129139E-1,4.5416728E-1,4.5638183E-1,4.9212167E-1,4.9532902E-1,-4.472781E-2,5.034894E-1,1.2304627E-2,2.8401403E-2,-4.8454113E-2,-6.868874E-2,-2.9876426E-2,-4.658742E-2,-2.9463235E-2,-8.808909E-3,-6.317609E-2,-2.4853216E-2,1.9896522E-2,-2.421952E-3],"split_indices":[0,0,0,0,0,0,0,0,0,0,0,0,0,0,0,0,0,0,0,0,0,0,0,0,0,0,0,0,0,0,0,0,0,0,0,0,0,0,0,0,0],"split_type":[0,0,0,0,0,0,0,0,0,0,0,0,0,0,0,0,0,0,0,0,0,0,0,0,0,0,0,0,0,0,0,0,0,0,0,0,0,0,0,0,0],"sum_hessian":[2.875298E3,2.0206753E3,8.5462274E2,1.8469203E3,1.73755E2,7.528306E1,7.793397E2,6.4235344E1,1.7826849E3,1.0016871E2,7.3586296E1,3.97017E1,3.5581364E1,4.8919445E1,7.304202E2,2.0800985E1,1.7618839E3,1.1820633E1,8.8348076E1,1.3675179E1,5.9911114E1,1.4664795E1,2.5036903E1,6.18273E2,1.143611E3,6.0312874E1,2.8035206E1,9.765699E0,5.0145416E1,1.1217848E1,1.3819056E1,5.888888E2,2.9384212E1,7.056473E1,1.0730461E3,2.9236095E1,3.1076778E1,7.2070827E0,2.0828123E1,2.5972195E1,2.4173222E1],"tree_param":{"num_deleted":"0","num_feature":"1","num_nodes":"41","size_leaf_vector":"1"}},{"base_weights":[-2.2924693E-2,-8.389773E-1,1.8885438E0,-9.208647E-1,-1.2967761E-1,4.9187407E-2,1.924574E0,-9.629349E-1,-8.705281E-1,2.3119887E-2,-1.6933312E-1,7.9066806E-2,9.735322E-2,-8.8972336E-1,-1.0128307E0,-6.024147E-1,-8.9366364E-1,-3.9750484E-1,-5.8919108E-3,-9.6155024E-1,-4.4701624E-1,-5.4565724E-2,-9.31527E-1,-3.5108607E-2,-4.130706E-1,-1.0123252E0,-8.598632E-1,1.0439389E-3,-4.5676336E-1,-9.133442E-2,1.6925547E-1,-5.6843657E-2,-4.5927275E-2,4.9695466E-3,-2.8017683E-2,-3.2707207E-2,-5.0432947E-2,-2.1959797E-3,-2.7652374E-2,-4.725645E-2,-6.169141E-2,-2.8328285E-2,-4.4377908E-2,-1.8653901E-2,-3.2205228E-2,3.1624243E-3,-2.5005996E-2,3.0533621E-2,-7.957593E-3],"categories":[],"categories_nodes":[],"categories_segments":[],"categories_sizes":[],"default_left":[0,0,0,0,0,0,0,0,0,0,0,0,0,0,0,0,0,0,0,0,0,0,0,0,0,0,0,0,0,0,0,0,0,0,0,0,0,0,0,0,0,0,0,0,0,0,0,0,0],"id":4,"left_children":[1,3,5,7,9,-1,11,13,15,-1,17,-1,-1,19,21,23,25,27,29,31,33,-1,35,-1,37,39,41,-1,43,45,47,-1,-1,-1,-1,-1,-1,-1,-1,-1,-1,-1,-1,-1,-1,-1,-1,-1,-1],"loss_changes":[4.466454E3,1.16432495E2,2.60354E1,2.9709473E0,4.981929E0,0E0,3.272705E0,2.6438599E0,4.60614E0,0E0,7.324662E0,0E0,0E0,1.2338745E1,2.619812E0,1.0123081E0,2.1834717E0,2.0421448E0,1.7437602E0,1.5541077E0,3.6427937E0,0E0,5.4751434E0,0E0,1.330595E0,1.2624359E0,4.3647156E0,0E0,8.8624E-1,4.9777417E0,5.6373386E0,0E0,0E0,0E0,0E0,0E0,0E0,0E0,0E0,0E0,0E0,0E0,0E0,0E0,0E0,0E0,0E0,0E0,0E0],"parents":[2147483647,0,0,1,1,2,2,3,3,4,4,6,6,7,7,8,8,10,10,13,13,14,14,15,15,16,16,17,17,18,18,19,19,20,20,22,22,24,24,25,25,26,26,28,28,29,29,30,30],"right_children":[2,4,6,8,10,-1,12,14,16,-1,18,-1,-1,20,22,24,26,28,30,32,34,-1,36,-1,38,40,42,-1,44,46,48,-1,-1,-1,-1,-1,-1,-1,-1,-1,-1,-1,-1,-1,-1,-1,-1,-1,-1],"split_conditions":[5.169075E-1,4.895031E-1,5.2916664E-1,4.6164355E-1,4.9007395E-1,4.9187407E-2,5.468609E-1,4.4718853E-1,4.633707E-1,2.3119887E-2,4.9641207E-1,7.9066806E-2,9.735322E-2,4.456004E-1,4.54986E-1,4.6269122E-1,4.6714526E-1,4.9072433E-1,5.0679857E-1,4.3221906E-1,4.458871E-1,-5.4565724E-2,4.5638183E-1,-3.5108607E-2,4.628942E-1,4.6637467E-1,4.6844062E-1,1.0439389E-3,4.9434683E-1,5.034894E-1,5.1008826E-1,-5.6843657E-2,-4.5927275E-2,4.9695466E-3,-2.8017683E-2,-3.2707207E-2,-5.0432947E-2,-2.1959797E-3,-2.7652374E-2,-4.725645E-2,-6.169141E-2,-2.8328285E-2,-4.4377908E-2,-1.8653901E-2,-3.2205228E-2,3.1624243E-3,-2.5005996E-2,3.0533621E-2,-7.957593E-3],"split_indices":[0,0,0,0,0,0,0,0,0,0,0,0,0,0,0,0,0,0,0,0,0,0,0,0,0,0,0,0,0,0,0,0,0,0,0,0,0,0,0,0,0,0,0,0,0,0,0,0,0],"split_type":[0,0,0,0,0,0,0,0,0,0,0,0,0,0,0,0,0,0,0,0,0,0,0,0,0,0,0,0,0,0,0,0,0,0,0,0,0,0,0,0,0,0,0,0,0,0,0,0,0],"sum_hessian":[2.861355E3,2.0056536E3,8.5570135E2,1.7978022E3,2.0785133E2,3.385413E1,8.218472E2,9.6943774E2,8.2836444E2,1.2378223E1,1.9547311E2,5.492453E1,7.669227E2,4.005486E2,5.6888916E2,6.79496E1,7.6041486E2,8.098379E1,1.14489334E2,3.4362524E2,5.6923355E1,2.8314346E2,2.857457E2,4.2729042E1,2.5220558E1,1.6216383E2,5.98251E2,1.0127583E1,7.08562E1,7.7272064E1,3.7217266E1,6.2674843E1,2.809504E2,9.799992E0,4.7123363E1,6.4232544E1,2.2151314E2,7.2952027E0,1.7925354E1,1.2846036E2,3.3703476E1,5.3467857E1,5.4478314E2,5.104557E1,1.9810633E1,5.668269E1,2.0589375E1,1.5510237E1,2.170703E1],"tree_param":{"num_deleted":"0","num_feature":"1","num_nodes":"49","size_leaf_vector":"1"}},{"base_weights":[-2.707852E-2,-8.157973E-1,1.7636237E0,-8.9872473E-1,-8.595429E-2,9.949856E-1,9.178235E-2,-9.3312925E-1,-8.2673246E-1,-2.8550908E-1,1.2019064E-1,2.4105625E-2,1.1051294E0,-8.7591475E-1,-9.667609E-1,-5.829489E-1,-8.511667E-1,1.8692357E-2,-3.837556E-1,3.4968812E-2,1.0792707E-2,4.7094777E-2,6.5849334E-2,-5.577401E-2,-8.345604E-1,-5.8405805E-2,-9.4337976E-1,-7.154901E-1,-1.4022471E-3,-1.0366101E0,-8.2616794E-1,-4.3272856E-1,-2.0011736E-1,-1.7599449E-1,2.2686417E-1,-4.9078385E-3,-4.3577507E-2,-4.606597E-2,-5.426184E-2,-3.9343026E-2,-2.2415219E-2,-3.8633913E-2,-6.0526848E-2,-2.8298093E-2,-4.3384317E-2,-1.8831525E-2,-3.7182227E-2,-1.3141543E-2,-6.692612E-3,-3.7513436E-3,-2.3665542E-2,1.7831309E-2,-5.7721576E-3],"categories":[],"categories_nodes":[],"categories_segments":[],"categories_sizes":[],"default_left":[0,0,0,0,0,0,0,0,0,0,0,0,0,0,0,0,0,0,0,0,0,0,0,0,0,0,0,0,0,0,0,0,0,0,0,0,0,0,0,0,0,0,0,0,0,0,0,0,0,0,0,0,0],"id":5,"left_children":[1,3,5,7,9,11,-1,13,15,17,19,-1,21,23,25,27,29,-1,31,-1,33,-1,-1,-1,35,-1,37,39,-1,41,43,45,47,49,51,-1,-1,-1,-1,-1,-1,-1,-1,-1,-1,-1,-1,-1,-1,-1,-1,-1,-1],"loss_changes":[4.0255476E3,1.196803E2,4.64209E1,3.6291504E0,8.384817E0,3.8085098E0,0E0,1.451416E0,2.9782104E0,6.8442955E0,6.36352E0,0E0,9.2061615E-1,3.5551453E0,2.393982E0,4.1213627E0,1.5911865E0,0E0,7.2747517E-1,0E0,3.4943492E0,0E0,0E0,0E0,1.0541351E1,0E0,1.0985718E0,5.132179E-1,0E0,1.7635193E0,4.5884094E0,9.513445E-1,5.1748693E-2,1.3594806E0,1.8233185E0,0E0,0E0,0E0,0E0,0E0,0E0,0E0,0E0,0E0,0E0,0E0,0E0,0E0,0E0,0E0,0E0,0E0,0E0],"parents":[2147483647,0,0,1,1,2,2,3,3,4,4,5,5,7,7,8,8,9,9,10,10,12,12,13,13,14,14,15,15,16,16,18,18,20,20,24,24,26,26,27,27,29,29,30,30,31,31,32,32,33,33,34,34],"right_children":[2,4,6,8,10,12,-1,14,16,18,20,-1,22,24,26,28,30,-1,32,-1,34,-1,-1,-1,36,-1,38,40,-1,42,44,46,48,50,52,-1,-1,-1,-1,-1,-1,-1,-1,-1,-1,-1,-1,-1,-1,-1,-1,-1,-1],"split_conditions":[5.129139E-1,4.895031E-1,5.358859E-1,4.6714526E-1,4.9763578E-1,5.169075E-1,9.178235E-2,4.4887596E-1,4.6844062E-1,4.9007395E-1,4.9890438E-1,2.4105625E-2,5.2916664E-1,4.3221906E-1,4.5095742E-1,4.6823287E-1,4.700482E-1,1.8692357E-2,4.9532902E-1,3.4968812E-2,5.047873E-1,4.7094777E-2,6.5849334E-2,-5.577401E-2,4.3390614E-1,-5.8405805E-2,4.6516734E-1,4.6801776E-1,-1.4022471E-3,4.6911508E-1,4.721671E-1,4.9434683E-1,4.9641207E-1,5.034894E-1,5.1008826E-1,-4.9078385E-3,-4.3577507E-2,-4.606597E-2,-5.426184E-2,-3.9343026E-2,-2.2415219E-2,-3.8633913E-2,-6.0526848E-2,-2.8298093E-2,-4.3384317E-2,-1.8831525E-2,-3.7182227E-2,-1.3141543E-2,-6.692612E-3,-3.7513436E-3,-2.3665542E-2,1.7831309E-2,-5.7721576E-3],"split_indices":[0,0,0,0,0,0,0,0,0,0,0,0,0,0,0,0,0,0,0,0,0,0,0,0,0,0,0,0,0,0,0,0,0,0,0,0,0,0,0,0,0,0,0,0,0,0,0,0,0,0,0,0,0],"split_type":[0,0,0,0,0,0,0,0,0,0,0,0,0,0,0,0,0,0,0,0,0,0,0,0,0,0,0,0,0,0,0,0,0,0,0,0,0,0,0,0,0,0,0,0,0,0,0,0,0,0,0,0,0],"sum_hessian":[2.8482078E3,1.977679E3,8.705287E2,1.7756875E3,2.0199144E2,7.5851295E1,7.946774E2,1.193407E3,5.822806E2,1.0244067E2,9.955077E1,1.4360455E1,6.1490845E1,4.518165E2,7.4159045E2,5.5309513E1,5.2697107E2,1.2920806E1,8.951986E1,1.4959219E1,8.459156E1,3.7806915E1,2.368393E1,6.2688602E1,3.891279E2,7.2059784E1,6.695307E2,4.4412098E1,1.0897413E1,5.7792835E1,4.6917822E2,6.960189E1,1.991797E1,4.546979E1,3.912177E1,1.87859E1,3.7034198E2,5.859098E2,8.36209E1,3.3514687E1,1.0897413E1,2.511844E1,3.2674393E1,6.657407E1,4.0260416E2,6.0836594E1,8.765294E0,8.709204E0,1.1208767E1,3.4877766E1,1.0592024E1,2.8337677E1,1.0784091E1],"tree_param":{"num_deleted":"0","num_feature":"1","num_nodes":"53","size_leaf_vector":"1"}},{"base_weights":[-2.6122887E-2,-8.006711E-1,1.6220294E0,-8.6093944E-1,-1.822346E-1,8.413977E-1,1.7040703E0,-1.0161481E0,-8.3718926E-1,-3.632838E-1,1.5139787E-2,5.9664458E-2,7.256391E-1,7.161359E-2,8.613376E-2,-9.4282156E-1,-6.720313E-2,1.0809795E-2,-8.4380937E-1,-7.2558396E-2,-4.5298102E-1,3.654583E-1,-1.7630813E-1,-9.314315E-3,4.564826E-2,-5.8269706E-2,-8.299126E-1,-9.032964E-1,-8.1962806E-1,-2.1209477E-3,-4.699143E-3,-6.311195E-1,-3.6762485E-1,1.8315116E-3,3.1410806E-2,-1.8607909E-2,-1.2673615E-1,-1.8436892E-2,-4.53844E-2,-3.678216E-2,-4.946163E-2,-2.3453599E-2,-4.2069536E-2,-2.1885818E-2,-3.9501846E-2,-1.302238E-2,-2.6269872E-2,-2.636602E-3,-1.0464764E-2],"categories":[],"categories_nodes":[],"categories_segments":[],"categories_sizes":[],"default_left":[0,0,0,0,0,0,0,0,0,0,0,0,0,0,0,0,0,0,0,0,0,0,0,0,0,0,0,0,0,0,0,0,0,0,0,0,0,0,0,0,0,0,0,0,0,0,0,0,0],"id":6,"left_children":[1,3,5,7,9,11,13,15,17,19,21,-1,23,-1,-1,25,-1,-1,27,29,31,33,35,-1,-1,-1,37,39,41,-1,-1,43,45,-1,-1,-1,47,-1,-1,-1,-1,-1,-1,-1,-1,-1,-1,-1,-1],"loss_changes":[3.575011E3,7.085144E1,5.5906494E1,5.5473633E0,6.096157E0,2.6829681E0,1.6247559E0,4.1589813E0,1.071936E1,2.286378E0,5.59783E0,0E0,1.1804787E1,0E0,0E0,3.7518005E0,0E0,0E0,1.4197998E0,1.0322973E-2,7.9854584E-1,2.5241811E0,4.7733474E-1,0E0,0E0,0E0,4.258339E0,5.384491E0,7.833618E0,0E0,0E0,2.861128E-1,6.78483E-1,0E0,0E0,0E0,2.61629E-1,0E0,0E0,0E0,0E0,0E0,0E0,0E0,0E0,0E0,0E0,0E0,0E0],"parents":[2147483647,0,0,1,1,2,2,3,3,4,4,5,5,6,6,7,7,8,8,9,9,10,10,12,12,15,15,18,18,19,19,20,20,21,21,22,22,26,26,27,27,28,28,31,31,32,32,36,36],"right_children":[2,4,6,8,10,12,14,16,18,20,22,-1,24,-1,-1,26,-1,-1,28,30,32,34,36,-1,-1,-1,38,40,42,-1,-1,44,46,-1,-1,-1,48,-1,-1,-1,-1,-1,-1,-1,-1,-1,-1,-1,-1],"split_conditions":[5.0679857E-1,4.895031E-1,5.2916664E-1,4.4173902E-1,4.9641207E-1,5.1008826E-1,5.468609E-1,4.4008145E-1,4.4204733E-1,4.9072433E-1,4.9890438E-1,5.9664458E-2,5.129139E-1,7.161359E-2,8.613376E-2,4.3221906E-1,-6.720313E-2,1.0809795E-2,4.54986E-1,4.9007395E-1,4.9212167E-1,4.9763578E-1,4.9992865E-1,-9.314315E-3,4.564826E-2,-5.8269706E-2,4.3390614E-1,4.4718853E-1,4.5638183E-1,-2.1209477E-3,-4.699143E-3,4.9137968E-1,4.9434683E-1,1.8315116E-3,3.1410806E-2,-1.8607909E-2,5.034894E-1,-1.8436892E-2,-4.53844E-2,-3.678216E-2,-4.946163E-2,-2.3453599E-2,-4.2069536E-2,-2.1885818E-2,-3.9501846E-2,-1.302238E-2,-2.6269872E-2,-2.636602E-3,-1.0464764E-2],"split_indices":[0,0,0,0,0,0,0,0,0,0,0,0,0,0,0,0,0,0,0,0,0,0,0,0,0,0,0,0,0,0,0,0,0,0,0,0,0,0,0,0,0,0,0,0,0,0,0,0,0],"split_type":[0,0,0,0,0,0,0,0,0,0,0,0,0,0,0,0,0,0,0,0,0,0,0,0,0,0,0,0,0,0,0,0,0,0,0,0,0,0,0,0,0,0,0,0,0,0,0,0,0],"sum_hessian":[2.7984568E3,1.9041274E3,8.9432935E2,1.7346854E3,1.6944205E2,8.612183E1,8.082075E2,2.2466989E2,1.5100155E3,8.793746E1,8.1504585E1,1.9013817E1,6.710802E1,5.677459E1,7.514329E2,1.867786E2,3.7891296E1,9.232806E0,1.5007827E3,2.1160675E1,6.677679E1,2.8480673E1,5.3023914E1,1.1436979E1,5.5671036E1,5.9724586E1,1.27054E2,4.232392E2,1.0775436E3,1.0030263E1,1.1130411E1,1.9560354E1,4.721643E1,1.3156005E1,1.5324668E1,9.39571E0,4.3628204E1,1.9163525E1,1.0789048E2,1.4666672E2,2.7657248E2,6.43026E1,1.0132409E3,1.0516319E1,9.044035E0,2.9694973E1,1.752146E1,2.3870213E1,1.9757992E1],"tree_param":{"num_deleted":"0","num_feature":"1","num_nodes":"49","size_leaf_vector":"1"}},{"base_weights":[-2.955778E-2,-7.751053E-1,1.5335108E0,-8.377216E-1,-1.3494119E-1,6.6978216E-1,1.6182272E0,-8.755072E-1,-7.34697E-1,2.103382E-2,-1.8222027E-1,4.8909461E-1,8.540091E-1,7.069915E-2,8.20204E-2,-5.7231624E-2,-8.610991E-1,-4.9585843E-1,-8.2770663E-1,-3.884767E-1,2.458761E-2,3.9645497E-2,2.866567E-1,5.445705E-2,2.6427144E-2,-2.0638797E-1,-8.7253183E-1,-6.256838E-1,4.706209E-2,-1.073692E0,-7.7567184E-1,-2.774627E-1,-7.5576574E-1,-8.165166E-2,1.0875524E-1,-6.4219655E-3,2.8252063E-2,-1.8099522E-2,-2.4025256E-3,-4.318365E-2,-5.8079537E-2,-2.2237176E-2,-4.3091703E-2,-4.8287794E-2,-6.4099744E-2,-3.7016965E-2,-6.485462E-2,-1.6310707E-2,-2.0555272E-3,-5.9606235E-2,-1.9460259E-2,4.1062026E-3,-2.2178167E-2,1.1439582E-2,-1.3704974E-3],"categories":[],"categories_nodes":[],"categories_segments":[],"categories_sizes":[],"default_left":[0,0,0,0,0,0,0,0,0,0,0,0,0,0,0,0,0,0,0,0,0,0,0,0,0,0,0,0,0,0,0,0,0,0,0,0,0,0,0,0,0,0,0,0,0,0,0,0,0,0,0,0,0,0,0],"id":7,"left_children":[1,3,5,7,9,11,13,15,17,-1,19,21,23,-1,-1,-1,25,27,29,31,33,-1,35,-1,-1,37,39,41,-1,43,45,47,49,51,53,-1,-1,-1,-1,-1,-1,-1,-1,-1,-1,-1,-1,-1,-1,-1,-1,-1,-1,-1,-1],"loss_changes":[3.2355127E3,7.5237915E1,6.452466E1,6.0218506E0,4.507664E0,2.3050613E0,1.3764648E0,3.8515015E0,9.933731E0,0E0,6.670105E0,2.4563923E0,2.4212036E0,0E0,0E0,0E0,8.713013E0,2.5404232E1,3.4377747E0,2.980383E0,7.1448714E-1,0E0,3.2795382E0,0E0,0E0,5.172613E-1,1.986145E0,4.854744E0,0E0,1.3160706E-2,4.1796722E0,6.9705296E-1,2.3477898E0,2.1377904E0,7.329184E-1,0E0,0E0,0E0,0E0,0E0,0E0,0E0,0E0,0E0,0E0,0E0,0E0,0E0,0E0,0E0,0E0,0E0,0E0,0E0,0E0],"parents":[2147483647,0,0,1,1,2,2,3,3,4,4,5,5,6,6,7,7,8,8,10,10,11,11,12,12,16,16,17,17,18,18,19,19,20,20,22,22,25,25,26,26,27,27,29,29,30,30,31,31,32,32,33,33,34,34],"right_children":[2,4,6,8,10,12,14,16,18,-1,20,22,24,-1,-1,-1,26,28,30,32,34,-1,36,-1,-1,38,40,42,-1,44,46,48,50,52,54,-1,-1,-1,-1,-1,-1,-1,-1,-1,-1,-1,-1,-1,-1,-1,-1,-1,-1,-1,-1],"split_conditions":[5.0679857E-1,4.895031E-1,5.2916664E-1,4.700482E-1,4.9007395E-1,5.169075E-1,5.575834E-1,4.3221906E-1,4.7392648E-1,2.103382E-2,4.9641207E-1,5.1008826E-1,5.223347E-1,7.069915E-2,8.20204E-2,-5.7231624E-2,4.3390614E-1,4.736919E-1,4.7576258E-1,4.9434683E-1,4.9992865E-1,3.9645497E-2,5.129139E-1,5.445705E-2,2.6427144E-2,4.3304995E-1,4.6911508E-1,4.721671E-1,4.706209E-2,4.7523844E-1,4.8840445E-1,4.9352345E-1,4.9532902E-1,4.9890438E-1,5.034894E-1,-6.4219655E-3,2.8252063E-2,-1.8099522E-2,-2.4025256E-3,-4.318365E-2,-5.8079537E-2,-2.2237176E-2,-4.3091703E-2,-4.8287794E-2,-6.4099744E-2,-3.7016965E-2,-6.485462E-2,-1.6310707E-2,-2.0555272E-3,-5.9606235E-2,-1.9460259E-2,4.1062026E-3,-2.2178167E-2,1.1439582E-2,-1.3704974E-3],"split_indices":[0,0,0,0,0,0,0,0,0,0,0,0,0,0,0,0,0,0,0,0,0,0,0,0,0,0,0,0,0,0,0,0,0,0,0,0,0,0,0,0,0,0,0,0,0,0,0,0,0,0,0,0,0,0,0],"split_type":[0,0,0,0,0,0,0,0,0,0,0,0,0,0,0,0,0,0,0,0,0,0,0,0,0,0,0,0,0,0,0,0,0,0,0,0,0,0,0,0,0,0,0,0,0,0,0,0,0,0,0,0,0,0,0],"sum_hessian":[2.7744294E3,1.8787927E3,8.9563654E2,1.7111151E3,1.6767769E2,8.079506E1,8.148415E2,1.2464613E3,4.646538E2,1.25299225E1,1.5514777E2,4.26345E1,3.8160557E1,8.616548E1,7.28676E2,5.9353966E1,1.1871073E3,1.3200659E2,3.3264722E2,7.723764E1,7.791013E1,1.5882108E1,2.6752392E1,2.079261E1,1.7367945E1,2.0700695E1,1.1664066E3,1.2158721E2,1.0419374E1,5.465257E1,2.7799466E2,6.06588E1,1.6578838E1,3.445268E1,4.345746E1,1.0955461E1,1.5796932E1,9.791818E0,1.0908876E1,1.135592E3,3.0814621E1,7.04733E1,5.1113914E1,3.971158E1,1.494099E1,2.626189E2,1.5375766E1,4.9971226E1,1.0687575E1,6.5406094E0,1.0038229E1,2.4251322E1,1.0201355E1,2.2735092E1,2.0722366E1],"tree_param":{"num_deleted":"0","num_feature":"1","num_nodes":"55","size_leaf_vector":"1"}},{"base_weights":[-4.749952E-3,-7.3269886E-1,1.4684521E0,-8.00716E-1,-5.6131337E-2,9.150931E-1,7.8453414E-2,-6.329478E-2,-7.9253155E-1,-3.082942E-1,2.8635168E-1,5.542489E-1,5.392837E-2,-8.1069547E-1,-6.4213574E-1,-9.026568E-2,-3.6771482E-1,2.9509364E-2,1.9385158E-1,3.8155552E-2,3.9702785E-1,-7.8617585E-1,-5.1547706E-2,-6.117206E-1,-5.9355237E-2,-7.328776E-3,-1.27116E-3,-5.8966744E-1,-2.848608E-1,-2.1330185E-2,3.364668E-1,4.381656E-3,3.1520084E-2,-4.000656E-2,4.024841E-2,-3.237673E-2,-1.4832965E-2,-1.9508963E-2,-3.7787113E-2,8.47572E-3,-1.873735E-2,2.6020436E-2,5.9504914E-3],"categories":[],"categories_nodes":[],"categories_segments":[],"categories_sizes":[],"default_left":[0,0,0,0,0,0,0,0,0,0,0,0,0,0,0,0,0,0,0,0,0,0,0,0,0,0,0,0,0,0,0,0,0,0,0,0,0,0,0,0,0,0,0],"id":8,"left_children":[1,3,5,7,9,11,-1,-1,13,15,17,19,-1,21,23,25,27,-1,29,-1,31,33,-1,35,-1,-1,-1,37,39,-1,41,-1,-1,-1,-1,-1,-1,-1,-1,-1,-1,-1,-1],"loss_changes":[2.9619563E3,8.502112E1,4.9420044E1,5.3912354E0,1.4764305E1,7.8335266E0,0E0,0E0,3.9957275E0,1.241046E0,1.9254742E0,1.2279291E0,0E0,7.135315E0,2.3064575E0,7.802546E-2,1.247405E0,0E0,5.1988277E0,0E0,2.0158067E0,3.013446E1,0E0,1.7865143E0,0E0,0E0,0E0,3.6728334E-1,2.4315157E0,0E0,1.8185315E0,0E0,0E0,0E0,0E0,0E0,0E0,0E0,0E0,0E0,0E0,0E0,0E0],"parents":[2147483647,0,0,1,1,2,2,3,3,4,4,5,5,8,8,9,9,10,10,11,11,13,13,14,14,15,15,16,16,18,18,20,20,21,21,23,23,27,27,28,28,30,30],"right_children":[2,4,6,8,10,12,-1,-1,14,16,18,20,-1,22,24,26,28,-1,30,-1,32,34,-1,36,-1,-1,-1,38,40,-1,42,-1,-1,-1,-1,-1,-1,-1,-1,-1,-1,-1,-1],"split_conditions":[5.0679857E-1,4.895031E-1,5.468609E-1,4.283649E-1,4.9763578E-1,5.169075E-1,7.8453414E-2,-6.329478E-2,4.7934303E-1,4.9072433E-1,4.9890438E-1,5.1008826E-1,5.392837E-2,4.7392648E-1,4.888745E-1,4.9007395E-1,4.9212167E-1,2.9509364E-2,4.9992865E-1,3.8155552E-2,5.129139E-1,4.736919E-1,-5.1547706E-2,4.8760706E-1,-5.9355237E-2,-7.328776E-3,-1.27116E-3,4.9137968E-1,4.9277192E-1,-2.1330185E-2,5.034894E-1,4.381656E-3,3.1520084E-2,-4.000656E-2,4.024841E-2,-3.237673E-2,-1.4832965E-2,-1.9508963E-2,-3.7787113E-2,8.47572E-3,-1.873735E-2,2.6020436E-2,5.9504914E-3],"split_indices":[0,0,0,0,0,0,0,0,0,0,0,0,0,0,0,0,0,0,0,0,0,0,0,0,0,0,0,0,0,0,0,0,0,0,0,0,0,0,0,0,0,0,0],"split_type":[0,0,0,0,0,0,0,0,0,0,0,0,0,0,0,0,0,0,0,0,0,0,0,0,0,0,0,0,0,0,0,0,0,0,0,0,0,0,0,0,0,0,0],"sum_hessian":[2.759944E3,1.8475316E3,9.124126E2,1.6785945E3,1.6893712E2,1.4193071E2,7.704819E2,2.636579E1,1.6522288E3,9.735589E1,7.158122E1,4.562063E1,9.6310074E1,1.470268E3,1.8196071E2,2.1389984E1,7.596591E1,1.5450496E1,5.6130726E1,1.7937551E1,2.7683077E1,1.3271017E3,1.4316628E2,1.7435246E2,7.6082478E0,1.0773599E1,1.0616385E1,1.8986687E1,5.697922E1,1.0118471E1,4.6012257E1,1.24943E1,1.5188777E1,1.3160563E3,1.1045488E1,1.556087E2,1.8743752E1,1.01472645E1,8.839421E0,9.263963E0,4.771526E1,2.4172297E1,2.183996E1],"tree_param":{"num_deleted":"0","num_feature":"1","num_nodes":"43","size_leaf_vector":"1"}},{"base_weights":[4.300442E-3,-6.98832E-1,1.4061301E0,-7.6144135E-1,-9.213328E-2,6.117306E-1,1.4879491E0,-6.2382698E-2,-7.5266695E-1,-3.2696912E-1,1.5249652E-1,4.1080147E-2,5.392726E-1,6.0318004E-2,7.528753E-2,-8.040054E-1,-7.217988E-1,3.1958686E-3,-4.4772032E-1,4.731194E-1,-2.266091E-3,5.511299E-3,6.333592E-1,-7.1199965E-1,-9.19417E-1,-5.8581644E-1,-7.449682E-1,6.1352584E-3,-6.0368157E-3,-6.512336E-1,-2.7900472E-1,3.186868E-2,1.7775565E-2,5.8752127E-2,-9.886122E-2,2.3610769E-2,3.4446795E-2,-3.8590986E-2,-1.8738821E-2,-6.378636E-2,-4.4084873E-2,-3.209878E-2,1.2934096E-2,-4.4114605E-2,-3.5934184E-2,-1.9702835E-2,-3.882618E-2,-5.991874E-3,-2.2307757E-2,-4.435158E-3,6.403462E-3,-1.7425694E-2,5.1833563E-3],"categories":[],"categories_nodes":[],"categories_segments":[],"categories_sizes":[],"default_left":[0,0,0,0,0,0,0,0,0,0,0,0,0,0,0,0,0,0,0,0,0,0,0,0,0,0,0,0,0,0,0,0,0,0,0,0,0,0,0,0,0,0,0,0,0,0,0,0,0,0,0,0,0],"id":9,"left_children":[1,3,5,7,9,11,13,-1,15,17,19,-1,21,-1,-1,23,25,27,29,31,33,-1,35,37,39,41,43,-1,-1,45,47,-1,-1,49,51,-1,-1,-1,-1,-1,-1,-1,-1,-1,-1,-1,-1,-1,-1,-1,-1,-1,-1],"loss_changes":[2.677473E3,6.864569E1,5.806604E1,6.0561523E0,9.836683E0,8.712044E-1,2.303711E0,0E0,1.9759521E0,3.4794226E0,4.175245E0,0E0,2.641096E0,0E0,0E0,5.6839905E0,2.7683105E0,3.7553E-1,2.0118017E0,3.0253267E-1,3.4607953E-1,0E0,1.6604996E-1,6.5005035E0,2.3877716E0,7.4110527E0,2.489685E0,0E0,0E0,6.0285664E-1,9.2233205E-1,0E0,0E0,3.794088E-1,1.1850306E0,0E0,0E0,0E0,0E0,0E0,0E0,0E0,0E0,0E0,0E0,0E0,0E0,0E0,0E0,0E0,0E0,0E0,0E0],"parents":[2147483647,0,0,1,1,2,2,3,3,4,4,5,5,6,6,8,8,9,9,10,10,12,12,15,15,16,16,17,17,18,18,19,19,20,20,22,22,23,23,24,24,25,25,26,26,29,29,30,30,33,33,34,34],"right_children":[2,4,6,8,10,12,14,-1,16,18,20,-1,22,-1,-1,24,26,28,30,32,34,-1,36,38,40,42,44,-1,-1,46,48,-1,-1,50,52,-1,-1,-1,-1,-1,-1,-1,-1,-1,-1,-1,-1,-1,-1,-1,-1,-1,-1],"split_conditions":[5.0679857E-1,4.895031E-1,5.2916664E-1,4.283649E-1,4.9641207E-1,5.1008826E-1,5.468609E-1,-6.2382698E-2,4.54986E-1,4.9072433E-1,4.9890438E-1,4.1080147E-2,5.129139E-1,6.0318004E-2,7.528753E-2,4.4718853E-1,4.5874578E-1,4.9007395E-1,4.9277192E-1,4.9763578E-1,5.034894E-1,5.511299E-3,5.169075E-1,4.456004E-1,4.4791105E-1,4.585637E-1,4.6233416E-1,6.1352584E-3,-6.0368157E-3,4.9137968E-1,4.9434683E-1,3.186868E-2,1.7775565E-2,4.9992865E-1,5.047873E-1,2.3610769E-2,3.4446795E-2,-3.8590986E-2,-1.8738821E-2,-6.378636E-2,-4.4084873E-2,-3.209878E-2,1.2934096E-2,-4.4114605E-2,-3.5934184E-2,-1.9702835E-2,-3.882618E-2,-5.991874E-3,-2.2307757E-2,-4.435158E-3,6.403462E-3,-1.7425694E-2,5.1833563E-3],"split_indices":[0,0,0,0,0,0,0,0,0,0,0,0,0,0,0,0,0,0,0,0,0,0,0,0,0,0,0,0,0,0,0,0,0,0,0,0,0,0,0,0,0,0,0,0,0,0,0,0,0,0,0,0,0],"split_type":[0,0,0,0,0,0,0,0,0,0,0,0,0,0,0,0,0,0,0,0,0,0,0,0,0,0,0,0,0,0,0,0,0,0,0,0,0,0,0,0,0,0,0,0,0,0,0,0,0,0,0,0,0],"sum_hessian":[2.7143967E3,1.8080254E3,9.063714E2,1.6386653E3,1.693601E2,8.5426186E1,8.2094525E2,2.6545017E1,1.6121202E3,8.623807E1,8.312205E1,1.9270557E1,6.6155624E1,5.2901356E1,7.680439E2,5.959383E2,1.016182E3,2.335446E1,6.288361E1,2.639085E1,5.6731194E1,1.228878E1,5.3866844E1,3.355823E2,2.6035596E2,1.5176266E2,8.644194E2,1.1894424E1,1.1460036E1,2.7206182E1,3.5677425E1,9.167639E0,1.7223211E1,3.5008457E1,2.1722738E1,1.624918E1,3.7617664E1,2.8392758E2,5.1654713E1,2.178138E1,2.3857458E2,1.4252458E2,9.238086E0,1.3364104E2,7.307783E2,1.027019E1,1.6935991E1,1.9154598E1,1.6522827E1,1.1105191E1,2.3903265E1,9.406597E0,1.231614E1],"tree_param":{"num_deleted":"0","num_feature":"1","num_nodes":"53","size_leaf_vector":"1"}},{"base_weights":[-1.4336201E-2,-7.0584744E-1,1.36256E0,-7.3831075E-1,-1.18335355E-2,7.8658104E-1,1.4435647E0,-7.757836E-1,-5.3603196E-1,2.863679E-1,-1.6511922E-1,5.3257173E-1,4.8321385E-2,5.9068996E-2,7.263905E-2,-9.302648E-1,-7.5021863E-1,-6.4943233E-3,-5.486363E-1,7.2729066E-3,1.9398442E-2,-8.345009E-2,-1.5778508E-2,4.0446125E-2,3.251284E-1,-5.3614754E-2,-8.718457E-1,2.571085E-2,-7.6154304E-1,-6.030128E-1,-4.579849E-1,-1.7815824E-1,4.6499637E-3,5.24754E-3,2.3880644E-2,-2.7523626E-2,-4.781569E-2,-3.7725683E-2,-6.2094428E-2,-2.6238365E-2,-4.0831674E-2,1.9961795E-2,-2.6951432E-2,-4.238482E-3,-1.2647561E-2],"categories":[],"categories_nodes":[],"categories_segments":[],"categories_sizes":[],"default_left":[0,0,0,0,0,0,0,0,0,0,0,0,0,0,0,0,0,0,0,0,0,0,0,0,0,0,0,0,0,0,0,0,0,0,0,0,0,0,0,0,0,0,0,0,0],"id":10,"left_children":[1,3,5,7,9,11,13,15,17,19,21,23,-1,-1,-1,25,27,-1,29,-1,-1,31,-1,-1,33,-1,35,-1,37,39,41,43,-1,-1,-1,-1,-1,-1,-1,-1,-1,-1,-1,-1,-1],"loss_changes":[2.5298176E3,3.9839783E1,4.030945E1,1.2391541E1,3.7064464E0,4.589035E0,1.6247559E-1,4.9230957E0,1.297226E0,3.3790612E-1,6.311209E-1,2.519621E0,0E0,0E0,0E0,7.074127E-1,1.7952026E1,0E0,1.000351E0,0E0,0E0,6.18854E-1,0E0,0E0,9.3688965E-1,0E0,3.4258652E0,0E0,3.168457E0,2.224308E0,7.2495823E0,1.4476585E-1,0E0,0E0,0E0,0E0,0E0,0E0,0E0,0E0,0E0,0E0,0E0,0E0,0E0],"parents":[2147483647,0,0,1,1,2,2,3,3,4,4,5,5,6,6,7,7,8,8,9,9,10,10,11,11,15,15,16,16,18,18,21,21,24,24,26,26,28,28,29,29,30,30,31,31],"right_children":[2,4,6,8,10,12,14,16,18,20,22,24,-1,-1,-1,26,28,-1,30,-1,-1,32,-1,-1,34,-1,36,-1,38,40,42,44,-1,-1,-1,-1,-1,-1,-1,-1,-1,-1,-1,-1,-1],"split_conditions":[5.0679857E-1,4.9641207E-1,5.358859E-1,4.7934303E-1,4.9890438E-1,5.169075E-1,5.468609E-1,4.4173902E-1,4.7962898E-1,4.9763578E-1,5.034894E-1,5.1008826E-1,4.8321385E-2,5.9068996E-2,7.263905E-2,4.3221906E-1,4.4204733E-1,-6.4943233E-3,4.8840445E-1,7.2729066E-3,1.9398442E-2,5.018553E-1,-1.5778508E-2,4.0446125E-2,5.129139E-1,-5.3614754E-2,4.3522605E-1,2.571085E-2,4.7872046E-1,4.855264E-1,4.888745E-1,4.9992865E-1,4.6499637E-3,5.24754E-3,2.3880644E-2,-2.7523626E-2,-4.781569E-2,-3.7725683E-2,-6.2094428E-2,-2.6238365E-2,-4.0831674E-2,1.9961795E-2,-2.6951432E-2,-4.238482E-3,-1.2647561E-2],"split_indices":[0,0,0,0,0,0,0,0,0,0,0,0,0,0,0,0,0,0,0,0,0,0,0,0,0,0,0,0,0,0,0,0,0,0,0,0,0,0,0,0,0,0,0,0,0],"split_type":[0,0,0,0,0,0,0,0,0,0,0,0,0,0,0,0,0,0,0,0,0,0,0,0,0,0,0,0,0,0,0,0,0,0,0,0,0,0,0,0,0,0,0,0,0],"sum_hessian":[2.654973E3,1.7676852E3,8.872877E2,1.6886335E3,7.905164E1,1.107212E2,7.765665E2,1.4223104E3,2.6632303E2,2.6544287E1,5.250736E1,4.753941E1,6.3181786E1,3.075763E1,7.458089E2,1.9693048E2,1.22538E3,8.356594E0,2.5796643E2,1.2139603E1,1.4404684E1,3.504084E1,1.7466518E1,1.9140902E1,2.839851E1,5.2335464E1,1.4459502E2,1.04829645E1,1.2148971E3,1.5771211E2,1.00254326E2,2.27957E1,1.2245142E1,1.2310796E1,1.6087715E1,3.1659182E1,1.1293584E2,1.1999084E3,1.4988639E1,1.1796143E2,3.975067E1,8.320462E0,9.193386E1,1.1086356E1,1.1709344E1],"tree_param":{"num_deleted":"0","num_feature":"1","num_nodes":"45","size_leaf_vector":"1"}},{"base_weights":[-1.7924758E-2,-6.628918E-1,1.2800108E0,-7.2759587E-1,-6.79991E-2,5.285324E-1,1.3603967E0,-9.6320665E-1,-7.1885425E-1,2.140492E-2,-1.0959192E-1,1.7615793E-2,6.142174E-1,5.206057E-2,6.908697E-2,-8.673428E-1,-5.9035953E-2,-5.1650044E-2,-7.272284E-1,-3.05146E-1,6.2351663E-2,3.593625E-2,1.8335162E-2,-5.1457237E-2,-2.5846032E-2,-1.3240302E-2,7.978121E-3,-7.5419486E-1,-6.5268314E-1,-4.5391166E-1,-2.1104908E-1,1.404857E-1,-5.1160824E-2,-3.7341937E-2,-6.1848927E-2,2.9920272E-3,-3.5002656E-2,-1.5805295E-2,-3.4632307E-2,1.2973207E-2,-1.6245982E-2,-3.7161023E-3,9.940907E-3,-7.1193423E-4,-6.1679836E-3],"categories":[],"categories_nodes":[],"categories_segments":[],"categories_sizes":[],"default_left":[0,0,0,0,0,0,0,0,0,0,0,0,0,0,0,0,0,0,0,0,0,0,0,0,0,0,0,0,0,0,0,0,0,0,0,0,0,0,0,0,0,0,0,0,0],"id":11,"left_children":[1,3,5,7,9,11,13,15,17,-1,19,-1,21,-1,-1,23,-1,25,27,29,31,-1,-1,-1,-1,-1,-1,33,35,37,39,41,43,-1,-1,-1,-1,-1,-1,-1,-1,-1,-1,-1,-1],"loss_changes":[2.1821882E3,6.698047E1,5.1555176E1,2.5421753E0,3.5945013E0,1.0709057E0,3.8822021E0,8.607483E-2,8.445251E0,0E0,5.379577E0,0E0,1.1854801E0,0E0,0E0,1.7769184E0,0E0,9.379808E-1,2.5216675E0,9.507346E-1,7.669585E-1,0E0,0E0,0E0,0E0,0E0,0E0,2.963623E0,1.3736084E1,7.0541525E-1,2.638021E0,6.5389407E-1,9.329886E-2,0E0,0E0,0E0,0E0,0E0,0E0,0E0,0E0,0E0,0E0,0E0,0E0],"parents":[2147483647,0,0,1,1,2,2,3,3,4,4,5,5,6,6,7,7,8,8,10,10,12,12,15,15,17,17,18,18,19,19,20,20,27,27,28,28,29,29,30,30,31,31,32,32],"right_children":[2,4,6,8,10,12,14,16,18,-1,20,-1,22,-1,-1,24,-1,26,28,30,32,-1,-1,-1,-1,-1,-1,34,36,38,40,42,44,-1,-1,-1,-1,-1,-1,-1,-1,-1,-1,-1,-1],"split_conditions":[5.0679857E-1,4.895031E-1,5.2916664E-1,4.3221906E-1,4.9007395E-1,5.129139E-1,5.468609E-1,4.3018356E-1,4.3390614E-1,2.140492E-2,4.9641207E-1,1.7615793E-2,5.223347E-1,5.206057E-2,6.908697E-2,4.283649E-1,-5.9035953E-2,4.3304995E-1,4.7086138E-1,4.9212167E-1,5.018553E-1,3.593625E-2,1.8335162E-2,-5.1457237E-2,-2.5846032E-2,-1.3240302E-2,7.978121E-3,4.7032458E-1,4.71634E-1,4.9137968E-1,4.9277192E-1,4.9763578E-1,5.047873E-1,-3.7341937E-2,-6.1848927E-2,2.9920272E-3,-3.5002656E-2,-1.5805295E-2,-3.4632307E-2,1.2973207E-2,-1.6245982E-2,-3.7161023E-3,9.940907E-3,-7.1193423E-4,-6.1679836E-3],"split_indices":[0,0,0,0,0,0,0,0,0,0,0,0,0,0,0,0,0,0,0,0,0,0,0,0,0,0,0,0,0,0,0,0,0,0,0,0,0,0,0,0,0,0,0,0,0],"split_type":[0,0,0,0,0,0,0,0,0,0,0,0,0,0,0,0,0,0,0,0,0,0,0,0,0,0,0,0,0,0,0,0,0,0,0,0,0,0,0,0,0,0,0,0,0],"sum_hessian":[2.6047495E3,1.7404021E3,8.643473E2,1.5694739E3,1.709283E2,8.425687E1,7.800904E2,5.2241238E1,1.5172327E3,1.2503264E1,1.5842503E2,2.9238287E1,5.501858E1,5.201262E1,7.2807776E2,3.9722134E1,1.2519103E1,1.8895689E1,1.4983369E3,7.376092E1,8.4664116E1,3.734618E1,1.7672401E1,2.5849613E1,1.38725195E1,9.278285E0,9.617404E0,1.09361E3,4.0472696E2,2.7097054E1,4.6663868E1,5.000592E1,3.465819E1,1.0797056E3,1.3904401E1,2.5213312E1,3.7951367E2,1.8653625E1,8.443428E0,8.843583E0,3.7820282E1,1.062084E1,3.938508E1,2.3723385E1,1.0934808E1],"tree_param":{"num_deleted":"0","num_feature":"1","num_nodes":"45","size_leaf_vector":"1"}},{"base_weights":[-1.4034066E-2,-6.383859E-1,1.235184E0,-6.6628057E-1,1.0897711E-2,6.433756E-1,6.62606E-2,-9.9755454E-1,-6.5346766E-1,2.3938889E-2,-1.3108167E-1,4.5351017E-1,3.8705155E-2,-8.417538E-1,-6.1926145E-2,-6.6848665E-1,-4.0992206E-1,-2.274565E-2,-1.700589E-2,3.8504183E-1,2.7376575E-2,-1.0065708E0,-2.455066E-2,3.4689938E-3,-6.7362505E-1,2.1881238E-2,-6.4689976E-1,-1.0516549E-1,7.342193E-3,2.5095755E-2,8.427163E-3,-5.7874E-2,-3.8676955E-2,-3.9992135E-2,-3.3082157E-2,5.6325775E-3,-1.0980551E-2,-3.7284683E-2,-2.1105235E-2,-6.8057994E-3,-3.5616846E-3],"categories":[],"categories_nodes":[],"categories_segments":[],"categories_sizes":[],"default_left":[0,0,0,0,0,0,0,0,0,0,0,0,0,0,0,0,0,0,0,0,0,0,0,0,0,0,0,0,0,0,0,0,0,0,0,0,0,0,0,0,0],"id":12,"left_children":[1,3,5,7,9,11,-1,13,15,-1,17,19,-1,21,-1,23,25,27,-1,29,-1,31,-1,-1,33,35,37,39,-1,-1,-1,-1,-1,-1,-1,-1,-1,-1,-1,-1,-1],"loss_changes":[2.0115427E3,3.1151794E1,4.4938477E1,6.3464966E0,4.833605E0,2.513832E0,0E0,1.1911736E0,5.5429688E0,0E0,1.2578125E0,1.0770798E-1,0E0,1.7750549E0,0E0,5.7199707E0,9.73102E0,5.449015E-1,0E0,7.251148E-1,0E0,1.0314941E-2,0E0,0E0,1.7182007E0,7.8351283E-1,1.0475712E0,1.7686516E-2,0E0,0E0,0E0,0E0,0E0,0E0,0E0,0E0,0E0,0E0,0E0,0E0,0E0],"parents":[2147483647,0,0,1,1,2,2,3,3,4,4,5,5,7,7,8,8,10,10,11,11,13,13,15,15,16,16,17,17,19,19,21,21,24,24,25,25,26,26,27,27],"right_children":[2,4,6,8,10,12,-1,14,16,-1,18,20,-1,22,-1,24,26,28,-1,30,-1,32,-1,-1,34,36,38,40,-1,-1,-1,-1,-1,-1,-1,-1,-1,-1,-1,-1,-1],"split_conditions":[5.0679857E-1,4.9763578E-1,5.358859E-1,4.3304995E-1,4.9890438E-1,5.169075E-1,6.62606E-2,4.3018356E-1,4.895031E-1,2.3938889E-2,5.034894E-1,5.129139E-1,3.8705155E-2,4.283649E-1,-6.1926145E-2,4.3390614E-1,4.9137968E-1,5.018553E-1,-1.700589E-2,5.1008826E-1,2.7376575E-2,4.2557105E-1,-2.455066E-2,3.4689938E-3,4.4173902E-1,4.9072433E-1,4.9532902E-1,4.9992865E-1,7.342193E-3,2.5095755E-2,8.427163E-3,-5.7874E-2,-3.8676955E-2,-3.9992135E-2,-3.3082157E-2,5.6325775E-3,-1.0980551E-2,-3.7284683E-2,-2.1105235E-2,-6.8057994E-3,-3.5616846E-3],"split_indices":[0,0,0,0,0,0,0,0,0,0,0,0,0,0,0,0,0,0,0,0,0,0,0,0,0,0,0,0,0,0,0,0,0,0,0,0,0,0,0,0,0],"split_type":[0,0,0,0,0,0,0,0,0,0,0,0,0,0,0,0,0,0,0,0,0,0,0,0,0,0,0,0,0,0,0,0,0,0,0,0,0,0,0,0,0],"sum_hessian":[2.57705E3,1.7185952E3,8.5845483E2,1.6477769E3,7.081837E1,1.1442383E2,7.44031E2,5.849707E1,1.5892798E3,1.5934737E1,5.4883633E1,4.848072E1,6.59431E1,3.825566E1,2.024141E1,1.4953215E3,9.395826E1,3.6879242E1,1.800439E1,3.1000652E1,1.7480068E1,2.4753744E1,1.3501916E1,1.0254752E1,1.4850668E3,3.3615055E1,6.0343204E1,2.5073502E1,1.1805742E1,1.9276318E1,1.1724336E1,1.2616425E1,1.213732E1,1.230547E2,1.3620121E3,2.4819576E1,8.795478E0,4.0310265E1,2.003294E1,1.1537891E1,1.3535609E1],"tree_param":{"num_deleted":"0","num_feature":"1","num_nodes":"41","size_leaf_vector":"1"}},{"base_weights":[-6.122588E-4,-5.873828E-1,1.2458622E0,-6.403925E-1,1.0389174E-1,7.8909737E-1,6.436718E-2,-6.6044766E-1,-3.5551238E-1,1.0315951E-2,2.785854E-1,3.3594232E-2,4.6757873E-2,-5.9319865E-2,-6.5138996E-1,-2.4874087E-1,-9.492733E-1,2.7248678E-1,-1.1917513E-1,2.9748527E-2,2.3143563E-2,-6.7093384E-1,-5.905186E-1,5.1265605E-2,-3.2144442E-1,-2.9746955E-2,-6.047375E-2,-7.661535E-3,2.9247344E-2,-2.1206449E-1,4.5977127E-2,-5.281598E-3,6.27022E-3,-3.260831E-2,-5.3091932E-2,4.0009143E-3,-3.1979486E-2,-4.7068903E-3,8.490302E-3,-5.5672716E-2,-1.147689E-2,-7.6099276E-3,-1.1744819E-2,9.0376055E-3,-3.821465E-3],"categories":[],"categories_nodes":[],"categories_segments":[],"categories_sizes":[],"default_left":[0,0,0,0,0,0,0,0,0,0,0,0,0,0,0,0,0,0,0,0,0,0,0,0,0,0,0,0,0,0,0,0,0,0,0,0,0,0,0,0,0,0,0,0,0],"id":13,"left_children":[1,3,5,7,9,11,-1,13,15,17,19,-1,-1,-1,21,23,25,27,29,-1,31,33,35,37,39,-1,-1,-1,-1,41,43,-1,-1,-1,-1,-1,-1,-1,-1,-1,-1,-1,-1,-1,-1],"loss_changes":[1.8666285E3,6.365442E1,1.4461548E1,8.974121E0,2.0315394E0,5.802307E-1,0E0,6.3951416E0,6.6217194E0,2.8189692E0,3.4914396E0,0E0,0E0,0E0,1.3662109E0,2.0458517E0,7.6779366E-1,3.7398696E0,8.632875E-1,0E0,3.429578E-1,7.4803467E0,1.2172256E1,3.4367532E-1,5.2058883E0,0E0,0E0,0E0,0E0,1.3165593E-2,3.5778913E-1,0E0,0E0,0E0,0E0,0E0,0E0,0E0,0E0,0E0,0E0,0E0,0E0,0E0,0E0],"parents":[2147483647,0,0,1,1,2,2,3,3,4,4,5,5,7,7,8,8,9,9,10,10,14,14,15,15,16,16,17,17,18,18,20,20,21,21,22,22,23,23,24,24,29,29,30,30],"right_children":[2,4,6,8,10,12,-1,14,16,18,20,-1,-1,-1,22,24,26,28,30,-1,32,34,36,38,40,-1,-1,-1,-1,42,44,-1,-1,-1,-1,-1,-1,-1,-1,-1,-1,-1,-1,-1,-1],"split_conditions":[5.169075E-1,4.9641207E-1,5.358859E-1,4.8760706E-1,5.0679857E-1,5.2916664E-1,6.436718E-2,4.283649E-1,4.9434683E-1,4.9890438E-1,5.1008826E-1,3.3594232E-2,4.6757873E-2,-5.9319865E-2,4.7086138E-1,4.888745E-1,4.9532902E-1,4.9763578E-1,5.034894E-1,2.9748527E-2,5.129139E-1,4.6911508E-1,4.71634E-1,4.8840445E-1,4.895031E-1,-2.9746955E-2,-6.047375E-2,-7.661535E-3,2.9247344E-2,4.9992865E-1,5.047873E-1,-5.281598E-3,6.27022E-3,-3.260831E-2,-5.3091932E-2,4.0009143E-3,-3.1979486E-2,-4.7068903E-3,8.490302E-3,-5.5672716E-2,-1.147689E-2,-7.6099276E-3,-1.1744819E-2,9.0376055E-3,-3.821465E-3],"split_indices":[0,0,0,0,0,0,0,0,0,0,0,0,0,0,0,0,0,0,0,0,0,0,0,0,0,0,0,0,0,0,0,0,0,0,0,0,0,0,0,0,0,0,0,0,0],"split_type":[0,0,0,0,0,0,0,0,0,0,0,0,0,0,0,0,0,0,0,0,0,0,0,0,0,0,0,0,0,0,0,0,0,0,0,0,0,0,0,0,0,0,0,0,0],"sum_hessian":[2.5501494E3,1.7342773E3,8.15872E2,1.6108264E3,1.2345104E2,6.959218E1,7.4627985E2,1.503653E3,1.0717341E2,8.107939E1,4.2371647E1,4.1715595E1,2.7876583E1,2.3256197E1,1.4803967E3,9.204126E1,1.5132153E1,2.6441332E1,5.463806E1,1.8334152E1,2.4037497E1,1.11302E3,3.6737677E2,1.8011759E1,7.4029495E1,7.798656E0,7.333497E0,1.1407948E1,1.5033385E1,3.4787746E1,1.9850315E1,1.0624836E1,1.341266E1,1.0645771E3,4.844282E1,2.500897E1,3.423678E2,8.181757E0,9.830002E0,6.541628E0,6.748787E1,1.1720987E1,2.306676E1,9.220964E0,1.0629352E1],"tree_param":{"num_deleted":"0","num_feature":"1","num_nodes":"45","size_leaf_vector":"1"}},{"base_weights":[-2.0253059E-2,-6.091066E-1,1.1994106E0,-6.709135E-1,-1.3122441E-1,5.5786747E-1,1.2447143E0,-5.8639843E-2,-6.622714E-1,-3.1977108E-1,1.4127429E-2,1.62479E-2,3.253691E-2,4.7870405E-2,1.2546687E0,-6.9031996E-1,-5.824423E-1,2.0594321E-2,-4.5276415E-1,8.0801986E-2,-2.753277E-2,6.326022E-2,4.771762E-2,-6.7391163E-1,-5.1821996E-2,-1.3902839E-1,-6.30843E-1,-5.830438E-1,-2.2222343E-1,2.7754906E-1,-2.2659723E-3,-3.395575E-2,1.4073486E-3,-9.523812E-3,4.0345658E-3,-4.461463E-2,-2.968954E-2,-2.0591203E-2,-6.1519723E-2,4.7533237E-3,-2.0323401E-2,-6.1300783E-3,2.62476E-2,-1.6776307E-2,7.57632E-3],"categories":[],"categories_nodes":[],"categories_segments":[],"categories_sizes":[],"default_left":[0,0,0,0,0,0,0,0,0,0,0,0,0,0,0,0,0,0,0,0,0,0,0,0,0,0,0,0,0,0,0,0,0,0,0,0,0,0,0,0,0,0,0,0,0],"id":14,"left_children":[1,3,5,7,9,11,13,-1,15,17,19,-1,-1,-1,21,23,25,-1,27,29,-1,-1,-1,31,-1,33,35,37,39,41,43,-1,-1,-1,-1,-1,-1,-1,-1,-1,-1,-1,-1,-1,-1],"loss_changes":[1.7982402E3,4.9785522E1,2.3000122E1,5.7072754E0,5.3382063E0,9.908638E-1,9.7424316E-1,0E0,2.8936768E0,8.434477E0,4.2189746E0,0E0,0E0,0E0,1.1083984E0,5.456787E0,8.263016E0,0E0,2.0390224E0,1.6353474E0,0E0,0E0,0E0,3.8096313E0,0E0,4.6273184E-1,2.8658142E0,4.538352E0,1.6571208E0,3.0047872E0,3.706275E0,0E0,0E0,0E0,0E0,0E0,0E0,0E0,0E0,0E0,0E0,0E0,0E0,0E0,0E0],"parents":[2147483647,0,0,1,1,2,2,3,3,4,4,5,5,6,6,8,8,9,9,10,10,14,14,15,15,16,16,18,18,19,19,23,23,25,25,26,26,27,27,28,28,29,29,30,30],"right_children":[2,4,6,8,10,12,14,-1,16,18,20,-1,-1,-1,22,24,26,-1,28,30,-1,-1,-1,32,-1,34,36,38,40,42,44,-1,-1,-1,-1,-1,-1,-1,-1,-1,-1,-1,-1,-1,-1],"split_conditions":[5.129139E-1,4.895031E-1,5.2916664E-1,4.283649E-1,4.9641207E-1,5.169075E-1,5.358859E-1,-5.8639843E-2,4.7086138E-1,4.9007395E-1,5.1008826E-1,1.62479E-2,3.253691E-2,4.7870405E-2,6.82577E-1,4.6911508E-1,4.721671E-1,2.0594321E-2,4.9352345E-1,4.9890438E-1,-2.753277E-2,6.326022E-2,4.771762E-2,4.6888843E-1,-5.1821996E-2,4.719222E-1,4.736919E-1,4.9277192E-1,4.9434683E-1,4.9763578E-1,5.018553E-1,-3.395575E-2,1.4073486E-3,-9.523812E-3,4.0345658E-3,-4.461463E-2,-2.968954E-2,-2.0591203E-2,-6.1519723E-2,4.7533237E-3,-2.0323401E-2,-6.1300783E-3,2.62476E-2,-1.6776307E-2,7.57632E-3],"split_indices":[0,0,0,0,0,0,0,0,0,0,0,0,0,0,0,0,0,0,0,0,0,0,0,0,0,0,0,0,0,0,0,0,0,0,0,0,0,0,0,0,0,0,0,0,0],"split_type":[0,0,0,0,0,0,0,0,0,0,0,0,0,0,0,0,0,0,0,0,0,0,0,0,0,0,0,0,0,0,0,0,0,0,0,0,0,0,0,0,0,0,0,0,0],"sum_hessian":[2.5017869E3,1.6875421E3,8.142447E2,1.4939218E3,1.9362036E2,5.4584904E1,7.596598E2,2.3008821E1,1.470913E3,8.376394E1,1.09856415E2,1.684316E1,3.7741745E1,2.8693167E1,7.309666E2,1.0828107E3,3.8810226E2,1.2561295E1,7.1202644E1,9.902331E1,1.083311E1,7.030882E2,2.7878466E1,1.0366154E3,4.6195377E1,3.8575172E1,3.495271E2,4.451691E1,2.6685738E1,2.8701757E1,7.032155E1,1.0290212E3,7.594E0,3.1364258E1,7.210915E0,4.0520718E1,3.0900638E2,3.6499275E1,8.017635E0,9.981131E0,1.6704607E1,1.1158461E1,1.7543297E1,2.1831697E1,4.848985E1],"tree_param":{"num_deleted":"0","num_feature":"1","num_nodes":"45","size_leaf_vector":"1"}},{"base_weights":[-1.9154683E-2,-5.926653E-1,1.0951622E0,-6.5781E-1,-1.0088829E-1,3.7261388E-1,1.1765652E0,-6.955518E-1,-5.507647E-1,-2.8822473E-1,1.3836314E-1,4.1002905E-1,1.0965175E-2,4.259422E-2,5.990051E-2,-6.815118E-1,-6.043142E-2,-3.011999E-1,-6.543915E-1,1.0750253E-1,-3.6594707E-1,2.0433864E-1,-5.5092324E-2,3.201008E-1,2.930898E-2,-6.8661183E-1,-1.1896248E-3,-4.4284725E-1,5.0939508E-2,-4.6230208E-2,-5.9359556E-1,-5.6705507E-3,1.5246302E-2,-5.430547E-2,-2.9933786E-1,-1.987494E-3,2.536466E-1,-1.6077457E-2,8.017101E-3,2.1999685E-2,2.2053094E-1,-3.3979435E-2,-5.8875825E-2,-1.9691823E-2,-5.4134537E-2,-2.726396E-2,-3.7488792E-2,-1.1217459E-2,-3.0307367E-2,2.1478374E-2,8.295522E-3,6.702978E-3,1.39299035E-2],"categories":[],"categories_nodes":[],"categories_segments":[],"categories_sizes":[],"default_left":[0,0,0,0,0,0,0,0,0,0,0,0,0,0,0,0,0,0,0,0,0,0,0,0,0,0,0,0,0,0,0,0,0,0,0,0,0,0,0,0,0,0,0,0,0,0,0,0,0,0,0,0,0],"id":15,"left_children":[1,3,5,7,9,11,13,15,17,19,21,23,-1,-1,-1,25,-1,27,29,31,33,35,37,39,-1,41,-1,43,-1,-1,45,-1,-1,-1,47,-1,49,-1,-1,-1,51,-1,-1,-1,-1,-1,-1,-1,-1,-1,-1,-1,-1],"loss_changes":[1.5682473E3,5.1835876E1,4.8605896E1,5.395935E0,8.586591E0,4.027691E-1,4.194092E0,6.7669067E0,9.570007E0,3.338665E0,1.088689E0,8.8784885E-1,0E0,0E0,0E0,3.4318542E0,0E0,2.1515785E1,3.8210907E0,8.363197E-1,3.9867868E0,7.702551E-1,1.3291061E0,4.6582842E-1,0E0,2.7164612E0,0E0,2.7860508E0,0E0,0E0,1.2508698E0,0E0,0E0,0E0,1.7887712E0,0E0,7.4185014E-1,0E0,0E0,0E0,1.0205257E-1,0E0,0E0,0E0,0E0,0E0,0E0,0E0,0E0,0E0,0E0,0E0,0E0],"parents":[2147483647,0,0,1,1,2,2,3,3,4,4,5,5,6,6,7,7,8,8,9,9,10,10,11,11,15,15,17,17,18,18,19,19,20,20,21,21,22,22,23,23,25,25,27,27,30,30,34,34,36,36,40,40],"right_children":[2,4,6,8,10,12,14,16,18,20,22,24,-1,-1,-1,26,-1,28,30,32,34,36,38,40,-1,42,-1,44,-1,-1,46,-1,-1,-1,48,-1,50,-1,-1,-1,52,-1,-1,-1,-1,-1,-1,-1,-1,-1,-1,-1,-1],"split_conditions":[5.0679857E-1,4.8760706E-1,5.2916664E-1,4.700482E-1,4.9641207E-1,5.223347E-1,5.468609E-1,4.6911508E-1,4.7392648E-1,4.888745E-1,5.034894E-1,5.169075E-1,1.0965175E-2,4.259422E-2,5.990051E-2,4.6888843E-1,-6.043142E-2,4.736919E-1,4.7576258E-1,4.8840445E-1,4.895031E-1,4.9763578E-1,5.047873E-1,5.1008826E-1,2.930898E-2,4.6844062E-1,-1.1896248E-3,4.7347757E-1,5.0939508E-2,-4.6230208E-2,4.8403847E-1,-5.6705507E-3,1.5246302E-2,-5.430547E-2,4.9434683E-1,-1.987494E-3,4.9890438E-1,-1.6077457E-2,8.017101E-3,2.1999685E-2,5.129139E-1,-3.3979435E-2,-5.8875825E-2,-1.9691823E-2,-5.4134537E-2,-2.726396E-2,-3.7488792E-2,-1.1217459E-2,-3.0307367E-2,2.1478374E-2,8.295522E-3,6.702978E-3,1.39299035E-2],"split_indices":[0,0,0,0,0,0,0,0,0,0,0,0,0,0,0,0,0,0,0,0,0,0,0,0,0,0,0,0,0,0,0,0,0,0,0,0,0,0,0,0,0,0,0,0,0,0,0,0,0,0,0,0,0],"split_type":[0,0,0,0,0,0,0,0,0,0,0,0,0,0,0,0,0,0,0,0,0,0,0,0,0,0,0,0,0,0,0,0,0,0,0,0,0,0,0,0,0,0,0,0,0,0,0,0,0,0,0,0,0],"sum_hessian":[2.451927E3,1.6190903E3,8.328366E2,1.4294028E3,1.8968748E2,8.4892525E1,7.479441E2,1.0527341E3,3.7666867E2,1.06271255E2,8.341623E1,6.6892914E1,1.7999615E1,4.8863647E1,6.9908044E2,1.0269604E3,2.5773714E1,1.1166123E2,2.6500745E2,1.7382778E1,8.888848E1,6.2160824E1,2.1255407E1,4.6149773E1,2.074314E1,1.019015E3,7.945399E0,1.0144025E2,1.0220984E1,4.6063988E1,2.1894345E2,8.404184E0,8.978595E0,6.2296247E0,8.265885E1,1.0479276E1,5.168155E1,9.282242E0,1.1973166E1,1.9386902E1,2.676287E1,1.0069928E3,1.2022218E1,9.572352E1,5.716725E0,1.7064395E2,4.8299503E1,6.7815094E1,1.4843758E1,1.5901381E1,3.5780167E1,1.2080998E1,1.4681873E1],"tree_param":{"num_deleted":"0","num_feature":"1","num_nodes":"53","size_leaf_vector":"1"}},{"base_weights":[-1.4543199E-2,-5.5456096E-1,1.1234212E0,-6.2526256E-1,-6.4499825E-2,6.094029E-1,5.921619E-2,-6.47352E-1,-4.4091257E-1,-1.4894259E-1,2.5873306E-1,2.1234943E-2,3.7752554E-2,-6.281077E-1,-8.175987E-1,-2.6811048E-1,-5.760239E-1,9.902546E-2,-1.8794447E-1,4.6242794E-1,-1.0080981E-2,-6.4466363E-1,-4.2043734E-1,-7.7112454E-1,-5.8184575E-2,-3.729266E-1,1.4582299E-1,-5.202324E-1,-5.420341E-2,9.009262E-3,1.9110761E-4,-7.290268E-1,-1.0737281E-1,2.9982973E-2,1.08196875E-2,-3.109551E-2,-4.985348E-2,-8.5702455E-3,-3.1256154E-2,-4.156762E-2,5.707011E-3,-1.331555E-2,-5.4695588E-2,2.5806497E-3,1.16688525E-2,-3.0879322E-2,-7.7825147E-3,-1.6163172E-2,-5.8473893E-2,-2.48533E-3,-2.027015E-2],"categories":[],"categories_nodes":[],"categories_segments":[],"categories_sizes":[],"default_left":[0,0,0,0,0,0,0,0,0,0,0,0,0,0,0,0,0,0,0,0,0,0,0,0,0,0,0,0,0,0,0,0,0,0,0,0,0,0,0,0,0,0,0,0,0,0,0,0,0,0,0],"id":16,"left_children":[1,3,5,7,9,11,-1,13,15,17,19,-1,-1,21,23,25,27,29,31,33,-1,35,37,39,-1,41,43,45,-1,-1,-1,47,49,-1,-1,-1,-1,-1,-1,-1,-1,-1,-1,-1,-1,-1,-1,-1,-1,-1,-1],"loss_changes":[1.4835544E3,5.66857E1,2.3600525E1,5.5405273E0,5.7031593E0,1.9488602E0,0E0,3.6651611E0,3.4929237E0,1.6161339E0,4.1584816E0,0E0,0E0,3.6836853E0,1.1327744E0,3.109675E0,1.8963604E0,1.7783502E-1,6.1593485E0,8.952346E-1,0E0,7.9069824E0,4.3684797E0,6.1858444E0,0E0,4.049597E0,1.1124933E-1,2.7481327E0,0E0,0E0,0E0,2.9052734E0,2.1402805E0,0E0,0E0,0E0,0E0,0E0,0E0,0E0,0E0,0E0,0E0,0E0,0E0,0E0,0E0,0E0,0E0,0E0,0E0],"parents":[2147483647,0,0,1,1,2,2,3,3,4,4,5,5,7,7,8,8,9,9,10,10,13,13,14,14,15,15,16,16,17,17,18,18,19,19,21,21,22,22,23,23,25,25,26,26,27,27,31,31,32,32],"right_children":[2,4,6,8,10,12,-1,14,16,18,20,-1,-1,22,24,26,28,30,32,34,-1,36,38,40,-1,42,44,46,-1,-1,-1,48,50,-1,-1,-1,-1,-1,-1,-1,-1,-1,-1,-1,-1,-1,-1,-1,-1,-1,-1],"split_conditions":[5.169075E-1,4.895031E-1,5.468609E-1,4.7934303E-1,5.0679857E-1,5.2916664E-1,5.921619E-2,4.7392648E-1,4.830567E-1,4.9072433E-1,5.129139E-1,2.1234943E-2,3.7752554E-2,4.7086138E-1,4.7872046E-1,4.8238015E-1,4.888745E-1,4.9007395E-1,4.9212167E-1,5.1008826E-1,-1.0080981E-2,4.6844062E-1,4.721671E-1,4.7841874E-1,-5.8184575E-2,4.8195168E-1,4.8269403E-1,4.8760706E-1,-5.420341E-2,9.009262E-3,1.9110761E-4,4.9137968E-1,5.034894E-1,2.9982973E-2,1.08196875E-2,-3.109551E-2,-4.985348E-2,-8.5702455E-3,-3.1256154E-2,-4.156762E-2,5.707011E-3,-1.331555E-2,-5.4695588E-2,2.5806497E-3,1.16688525E-2,-3.0879322E-2,-7.7825147E-3,-1.6163172E-2,-5.8473893E-2,-2.48533E-3,-2.027015E-2],"split_indices":[0,0,0,0,0,0,0,0,0,0,0,0,0,0,0,0,0,0,0,0,0,0,0,0,0,0,0,0,0,0,0,0,0,0,0,0,0,0,0,0,0,0,0,0,0,0,0,0,0,0,0],"split_type":[0,0,0,0,0,0,0,0,0,0,0,0,0,0,0,0,0,0,0,0,0,0,0,0,0,0,0,0,0,0,0,0,0,0,0,0,0,0,0,0,0,0,0,0,0,0,0,0,0,0,0],"sum_hessian":[2.4121504E3,1.636206E3,7.759442E2,1.4296703E3,2.065358E2,8.3363304E1,6.9258093E2,1.2744498E3,1.552205E2,1.641831E2,4.23527E1,3.8480316E1,4.4882988E1,1.1492328E3,1.2521704E2,6.941973E1,8.5800766E1,2.2104849E1,1.4207825E2,2.9357992E1,1.2994707E1,1.0624296E3,8.6803215E1,1.1323911E2,1.1977923E1,5.5472153E1,1.3947578E1,7.9134514E1,6.6662574E0,1.1450656E1,1.0654193E1,1.737144E1,1.2470681E2,1.7923452E1,1.1434539E1,1.0005903E3,6.1839237E1,3.998842E1,4.6814796E1,1.0608281E2,7.1563067E0,4.951892E1,5.9532347E0,7.4840665E0,6.463512E0,6.1909035E1,1.7225475E1,9.944268E0,7.427173E0,1.0546671E2,1.9240095E1],"tree_param":{"num_deleted":"0","num_feature":"1","num_nodes":"51","size_leaf_vector":"1"}},{"base_weights":[-3.5961658E-2,-5.584463E-1,1.05979E0,-6.388263E-1,-3.1910613E-2,6.225601E-1,1.127701E0,-7.651081E-1,-5.6262785E-1,-1.948635E-1,9.78129E-2,2.3077965E-2,3.9733157E-2,5.713097E-2,4.7382616E-2,-7.4386877E-1,-5.9071627E-2,-5.475213E-1,-5.16586E-2,1.8038427E-2,-2.5500476E-1,1.5641706E-1,-2.4191564E-2,-8.3377564E-1,-6.9350487E-1,-2.678167E-1,-5.68517E-1,-5.285641E-2,-1.8157235E-1,4.163211E-1,5.693628E-2,-3.8638953E-2,-4.9608365E-2,-2.661629E-2,-3.998739E-2,-1.8858476E-2,3.144292E-3,-5.261889E-2,-2.7386187E-2,-5.0243936E-3,-2.6870025E-2,1.0431771E-2,2.6968533E-2,-3.2115434E-3,2.0878348E-2],"categories":[],"categories_nodes":[],"categories_segments":[],"categories_sizes":[],"default_left":[0,0,0,0,0,0,0,0,0,0,0,0,0,0,0,0,0,0,0,0,0,0,0,0,0,0,0,0,0,0,0,0,0,0,0,0,0,0,0,0,0,0,0,0,0],"id":17,"left_children":[1,3,5,7,9,11,13,15,17,19,21,-1,-1,-1,-1,23,-1,25,-1,-1,27,29,-1,31,33,35,37,-1,39,41,43,-1,-1,-1,-1,-1,-1,-1,-1,-1,-1,-1,-1,-1,-1],"loss_changes":[1.3485847E3,6.7483154E1,2.188092E1,1.288385E1,4.5066156E0,2.528263E0,6.821289E-1,3.7009583E0,5.595398E0,3.247436E0,4.1273003E0,0E0,0E0,0E0,0E0,1.6653748E0,0E0,4.791931E0,0E0,0E0,4.8613124E0,2.787762E0,0E0,9.0431976E-1,5.1144714E0,2.217925E0,7.293701E0,0E0,2.2484913E0,6.5263224E-1,3.5136638E0,0E0,0E0,0E0,0E0,0E0,0E0,0E0,0E0,0E0,0E0,0E0,0E0,0E0,0E0],"parents":[2147483647,0,0,1,1,2,2,3,3,4,4,5,5,6,6,7,7,8,8,9,9,10,10,15,15,17,17,20,20,21,21,23,23,24,24,25,25,26,26,28,28,29,29,30,30],"right_children":[2,4,6,8,10,12,14,16,18,20,22,-1,-1,-1,-1,24,-1,26,-1,-1,28,30,-1,32,34,36,38,-1,40,42,44,-1,-1,-1,-1,-1,-1,-1,-1,-1,-1,-1,-1,-1,-1],"split_conditions":[5.129139E-1,4.8840445E-1,5.468609E-1,4.54986E-1,4.9641207E-1,5.2916664E-1,6.724056E-1,4.5416728E-1,4.860154E-1,4.888745E-1,5.1008826E-1,2.3077965E-2,3.9733157E-2,5.713097E-2,4.7382616E-2,4.4173902E-1,-5.9071627E-2,4.565457E-1,-5.16586E-2,1.8038427E-2,4.895031E-1,4.9890438E-1,-2.4191564E-2,4.3928683E-1,4.4718853E-1,4.561926E-1,4.576635E-1,-5.285641E-2,4.9434683E-1,4.9763578E-1,5.0679857E-1,-3.8638953E-2,-4.9608365E-2,-2.661629E-2,-3.998739E-2,-1.8858476E-2,3.144292E-3,-5.261889E-2,-2.7386187E-2,-5.0243936E-3,-2.6870025E-2,1.0431771E-2,2.6968533E-2,-3.2115434E-3,2.0878348E-2],"split_indices":[0,0,0,0,0,0,0,0,0,0,0,0,0,0,0,0,0,0,0,0,0,0,0,0,0,0,0,0,0,0,0,0,0,0,0,0,0,0,0,0,0,0,0,0,0],"split_type":[0,0,0,0,0,0,0,0,0,0,0,0,0,0,0,0,0,0,0,0,0,0,0,0,0,0,0,0,0,0,0,0,0,0,0,0,0,0,0,0,0,0,0,0,0],"sum_hessian":[2.3535176E3,1.5939626E3,7.59555E2,1.3826729E3,2.1128976E2,1.0348135E2,6.5607367E2,5.1693256E2,8.6574036E2,9.3427795E1,1.1786197E2,5.5367485E1,4.8113873E1,6.0093567E2,5.5138E1,4.9449213E2,2.24404E1,8.40907E2,2.4833363E1,8.6366825E0,8.479111E1,1.07737816E2,1.0124158E1,1.7196129E2,3.2253085E2,5.967505E1,7.8123193E2,5.9878774E0,7.880323E1,2.8941128E1,7.8796684E1,1.2839526E2,4.3566025E1,1.3052473E2,1.9200612E2,4.4740337E1,1.4934712E1,3.014507E1,7.5108685E2,6.522294E1,1.35802965E1,1.1770376E1,1.7170752E1,5.9595333E1,1.9201353E1],"tree_param":{"num_deleted":"0","num_feature":"1","num_nodes":"45","size_leaf_vector":"1"}},{"base_weights":[-2.8056525E-2,-5.397771E-1,9.8423713E-1,-5.819936E-1,-1.708656E-1,4.2932296E-1,5.3487588E-2,-6.491837E-1,-5.396516E-1,-3.0575022E-1,-1.9721376E-2,2.4395566E-1,4.9865255E-1,-5.204407E-1,-8.267237E-1,-2.1625288E-1,-5.562267E-1,5.7484647E-3,-3.7594053E-1,1.641372E-1,-2.9959974E-1,1.7309388E-2,4.300715E-3,3.005675E-2,1.941829E-2,-6.064252E-1,-1.9699642E-1,-7.687422E-1,-5.943371E-2,-4.8549956E-1,2.5323724E-2,-9.4296604E-1,-5.3698665E-1,-2.7580684E-2,-2.69274E-1,1.0014119E-2,1.1652389E-1,-2.4483055E-2,-1.8505013E-1,-2.8637785E-2,-5.784872E-2,2.4280282E-2,-1.5119851E-2,-4.013819E-2,2.3187478E-3,-6.6761225E-3,-5.5009585E-2,2.637373E-2,-1.30152395E-2,-3.5588324E-2,-5.8444407E-2,-4.2980304E-3,-2.8153567E-2,-1.4717411E-3,-1.7106123E-2,6.0778455E-4,1.01444265E-2,2.62849E-3,-2.0789225E-2],"categories":[],"categories_nodes":[],"categories_segments":[],"categories_sizes":[],"default_left":[0,0,0,0,0,0,0,0,0,0,0,0,0,0,0,0,0,0,0,0,0,0,0,0,0,0,0,0,0,0,0,0,0,0,0,0,0,0,0,0,0,0,0,0,0,0,0,0,0,0,0,0,0,0,0,0,0,0,0],"id":18,"left_children":[1,3,5,7,9,11,-1,13,15,17,19,21,23,25,27,29,31,-1,33,35,37,-1,-1,-1,-1,39,41,43,-1,45,47,49,51,-1,53,-1,55,-1,57,-1,-1,-1,-1,-1,-1,-1,-1,-1,-1,-1,-1,-1,-1,-1,-1,-1,-1,-1,-1],"loss_changes":[1.2122681E3,2.4109283E1,3.6829163E1,3.6166077E0,3.276895E0,1.2482529E0,0E0,1.1777756E1,4.496521E0,2.5539875E0,4.011805E0,4.7034132E-1,6.325512E-1,8.565895E0,3.7621002E0,2.8499582E0,5.5851135E0,0E0,1.2212572E0,5.775869E-2,5.8180094E-1,0E0,0E0,0E0,0E0,3.9016342E0,4.9720907E0,5.441353E0,0E0,4.3277E0,3.5717773E0,1.1254425E0,9.153824E0,0E0,8.187504E-1,0E0,2.0238146E-1,0E0,1.1665459E0,0E0,0E0,0E0,0E0,0E0,0E0,0E0,0E0,0E0,0E0,0E0,0E0,0E0,0E0,0E0,0E0,0E0,0E0,0E0,0E0],"parents":[2147483647,0,0,1,1,2,2,3,3,4,4,5,5,7,7,8,8,9,9,10,10,11,11,12,12,13,13,14,14,15,15,16,16,18,18,19,19,20,20,25,25,26,26,27,27,29,29,30,30,31,31,32,32,34,34,36,36,38,38],"right_children":[2,4,6,8,10,12,-1,14,16,18,20,22,24,26,28,30,32,-1,34,36,38,-1,-1,-1,-1,40,42,44,-1,46,48,50,52,-1,54,-1,56,-1,58,-1,-1,-1,-1,-1,-1,-1,-1,-1,-1,-1,-1,-1,-1,-1,-1,-1,-1,-1,-1],"split_conditions":[5.0679857E-1,4.895031E-1,5.358859E-1,4.551834E-1,4.9641207E-1,5.129139E-1,5.3487588E-2,4.4718853E-1,4.5638183E-1,4.9007395E-1,5.018553E-1,5.1008826E-1,5.223347E-1,4.4481504E-1,4.5416728E-1,4.5587373E-1,4.576635E-1,5.7484647E-3,4.9212167E-1,4.9890438E-1,5.034894E-1,1.7309388E-2,4.300715E-3,3.005675E-2,1.941829E-2,4.4423467E-1,4.4505352E-1,4.5396826E-1,-5.943371E-2,4.5559195E-1,4.5602107E-1,4.5696157E-1,4.5874578E-1,-2.7580684E-2,4.9277192E-1,1.0014119E-2,4.9992865E-1,-2.4483055E-2,5.047873E-1,-2.8637785E-2,-5.784872E-2,2.4280282E-2,-1.5119851E-2,-4.013819E-2,2.3187478E-3,-6.6761225E-3,-5.5009585E-2,2.637373E-2,-1.30152395E-2,-3.5588324E-2,-5.8444407E-2,-4.2980304E-3,-2.8153567E-2,-1.4717411E-3,-1.7106123E-2,6.0778455E-4,1.01444265E-2,2.62849E-3,-2.0789225E-2],"split_indices":[0,0,0,0,0,0,0,0,0,0,0,0,0,0,0,0,0,0,0,0,0,0,0,0,0,0,0,0,0,0,0,0,0,0,0,0,0,0,0,0,0,0,0,0,0,0,0,0,0,0,0,0,0,0,0,0,0,0,0],"split_type":[0,0,0,0,0,0,0,0,0,0,0,0,0,0,0,0,0,0,0,0,0,0,0,0,0,0,0,0,0,0,0,0,0,0,0,0,0,0,0,0,0,0,0,0,0,0,0,0,0,0,0,0,0,0,0,0,0,0,0],"sum_hessian":[2.3382083E3,1.5534146E3,7.847937E2,1.3933845E3,1.6003003E2,1.0559509E2,6.791986E2,5.331029E2,8.602817E2,8.402301E1,7.600701E1,2.9973465E1,7.562162E1,3.1129733E2,2.2180554E2,4.2627033E1,8.176546E2,1.1922396E1,7.210062E1,4.6121964E1,2.9885046E1,1.7472206E1,1.250126E1,3.6890743E1,3.873088E1,2.4523036E2,6.606698E1,1.9387263E2,2.7932898E1,1.9681505E1,2.2945528E1,3.6474606E1,7.8118005E2,2.566333E1,4.6437286E1,2.4395748E1,2.1726215E1,1.000689E1,1.9878155E1,2.3302008E2,1.2210285E1,8.354406E0,5.771257E1,1.8611949E2,7.753148E0,1.3289221E1,6.3922834E0,8.012461E0,1.4933067E1,2.0078041E1,1.6396564E1,4.294359E1,7.3823645E2,1.1145847E1,3.529144E1,1.0354257E1,1.1371959E1,1.0173362E1,9.704793E0],"tree_param":{"num_deleted":"0","num_feature":"1","num_nodes":"59","size_leaf_vector":"1"}},{"base_weights":[3.3079805E-3,-4.9192694E-1,9.7403765E-1,-5.4399896E-1,-2.2885586E-1,4.7681415E-1,5.2856352E-2,-9.329403E-1,-5.301046E-1,-3.0812082E-1,-1.2627196E-1,3.4043532E-2,4.2358714E-1,-7.821834E-1,-5.647725E-2,-4.1215467E-1,-5.61091E-1,4.3947743E-3,-3.5457054E-1,-1.0546732E-1,-1.6427573E-2,-8.893075E-3,5.1058674E-1,-5.3684752E-2,-5.571698E-1,-4.7596636E-1,2.1570341E-1,-7.4752545E-1,-5.0841737E-1,-5.415113E-2,-3.0767778E-1,-1.2595461E-1,3.896083E-3,4.4691852E-1,3.2146968E-2,-1.3165804E-2,-3.3848967E-2,-3.7593122E-3,-2.5275964E-2,3.4197755E-3,1.38078425E-2,-3.4922477E-2,-5.757087E-2,-1.1779391E-3,-2.7204176E-2,-1.2112721E-3,-1.9734034E-2,-3.6384265E-3,-1.1179336E-2,2.6683947E-2,1.2953422E-2],"categories":[],"categories_nodes":[],"categories_segments":[],"categories_sizes":[],"default_left":[0,0,0,0,0,0,0,0,0,0,0,0,0,0,0,0,0,0,0,0,0,0,0,0,0,0,0,0,0,0,0,0,0,0,0,0,0,0,0,0,0,0,0,0,0,0,0,0,0,0,0],"id":19,"left_children":[1,3,5,7,9,11,-1,13,15,17,19,-1,21,23,-1,25,27,-1,29,31,-1,-1,33,-1,35,37,39,41,43,-1,45,47,-1,49,-1,-1,-1,-1,-1,-1,-1,-1,-1,-1,-1,-1,-1,-1,-1,-1,-1],"loss_changes":[1.1049283E3,2.0724182E1,3.1574097E1,6.367279E0,2.0199623E0,9.388485E-1,0E0,3.7556076E-1,4.2578735E0,2.645831E0,4.369415E-1,0E0,4.918585E0,1.192152E0,0E0,1.0491848E1,9.145111E0,0E0,4.01927E0,3.9711332E-1,0E0,0E0,3.9405632E-1,0E0,4.372592E-1,2.7536545E0,2.0028377E-1,3.3889542E0,1.311972E1,0E0,2.9771204E0,4.6720254E-1,0E0,8.0503654E-1,0E0,0E0,0E0,0E0,0E0,0E0,0E0,0E0,0E0,0E0,0E0,0E0,0E0,0E0,0E0,0E0,0E0],"parents":[2147483647,0,0,1,1,2,2,3,3,4,4,5,5,7,7,8,8,9,9,10,10,12,12,13,13,15,15,16,16,18,18,19,19,22,22,24,24,25,25,26,26,27,27,28,28,30,30,31,31,33,33],"right_children":[2,4,6,8,10,12,-1,14,16,18,20,-1,22,24,-1,26,28,-1,30,32,-1,-1,34,-1,36,38,40,42,44,-1,46,48,-1,50,-1,-1,-1,-1,-1,-1,-1,-1,-1,-1,-1,-1,-1,-1,-1,-1,-1],"split_conditions":[5.0679857E-1,4.8238015E-1,5.358859E-1,4.3221906E-1,4.9277192E-1,5.1008826E-1,5.2856352E-2,4.293282E-1,4.4718853E-1,4.830567E-1,5.047873E-1,3.4043532E-2,5.129139E-1,4.2557105E-1,-5.647725E-2,4.46449E-1,4.54986E-1,4.3947743E-3,4.8347783E-1,5.034894E-1,-1.6427573E-2,-8.893075E-3,5.2916664E-1,-5.3684752E-2,4.2743942E-1,4.3390614E-1,4.4673887E-1,4.5416728E-1,4.5638183E-1,-5.415113E-2,4.855264E-1,4.9890438E-1,3.896083E-3,5.223347E-1,3.2146968E-2,-1.3165804E-2,-3.3848967E-2,-3.7593122E-3,-2.5275964E-2,3.4197755E-3,1.38078425E-2,-3.4922477E-2,-5.757087E-2,-1.1779391E-3,-2.7204176E-2,-1.2112721E-3,-1.9734034E-2,-3.6384265E-3,-1.1179336E-2,2.6683947E-2,1.2953422E-2],"split_indices":[0,0,0,0,0,0,0,0,0,0,0,0,0,0,0,0,0,0,0,0,0,0,0,0,0,0,0,0,0,0,0,0,0,0,0,0,0,0,0,0,0,0,0,0,0,0,0,0,0,0,0],"split_type":[0,0,0,0,0,0,0,0,0,0,0,0,0,0,0,0,0,0,0,0,0,0,0,0,0,0,0,0,0,0,0,0,0,0,0,0,0,0,0,0,0,0,0,0,0,0,0,0,0,0,0],"sum_hessian":[2.296398E3,1.520951E3,7.7544684E2,1.2687484E3,2.5220256E2,1.1199345E2,6.6345337E2,4.147939E1,1.227269E3,1.4114131E2,1.1106124E2,2.0729788E1,9.126366E1,2.6294874E1,1.5184517E1,2.583102E2,9.689588E2,1.4723231E1,1.2641808E2,1.02083275E2,8.977968E0,1.1401061E1,7.9862595E1,9.811761E0,1.6483112E1,2.3469878E2,2.361144E1,2.1054788E2,7.5841095E2,6.3094025E0,1.2010868E2,9.210676E1,9.976519E0,5.6878098E1,2.2984499E1,5.70019E0,1.0782923E1,1.63612E1,2.1833759E2,7.4905257E0,1.6120914E1,1.9017009E2,2.0377796E1,5.2079823E1,7.063311E2,2.8508255E1,9.160043E1,6.0755123E1,3.1351635E1,3.764869E1,1.9229408E1],"tree_param":{"num_deleted":"0","num_feature":"1","num_nodes":"51","size_leaf_vector":"1"}},{"base_weights":[-2.3203388E-2,-4.9381295E-1,9.771706E-1,-5.4065037E-1,6.988214E-2,2.987205E-1,1.0266243E0,-6.3300544E-1,-4.8696452E-1,1.2020764E-1,-2.2006502E-2,1.9358872E-2,5.143917E-3,4.014194E-2,5.2155662E-2,-4.598635E-2,-6.0645574E-1,-8.5580535E-2,-5.0460345E-1,4.990754E-2,2.1863848E-2,-5.046134E-1,-7.197363E-1,-4.545257E-1,1.1508631E-1,-5.2310586E-2,-4.8114058E-1,9.000827E-2,-1.447756E-2,-2.9406732E-2,-4.813902E-3,-4.416908E-2,-2.9867008E-2,3.8294687E-3,-5.3251512E-2,2.1673616E-2,-3.1816864E-3,-7.5682783E-3,-2.4918122E-2,-4.5001074E-3,7.318118E-3],"categories":[],"categories_nodes":[],"categories_segments":[],"categories_sizes":[],"default_left":[0,0,0,0,0,0,0,0,0,0,0,0,0,0,0,0,0,0,0,0,0,0,0,0,0,0,0,0,0,0,0,0,0,0,0,0,0,0,0,0,0],"id":20,"left_children":[1,3,5,7,9,11,13,15,17,19,-1,-1,-1,-1,-1,-1,21,23,25,27,-1,29,31,33,35,-1,37,39,-1,-1,-1,-1,-1,-1,-1,-1,-1,-1,-1,-1,-1],"loss_changes":[1.0563436E3,4.0324738E1,2.377893E1,6.6776123E0,3.0801923E0,8.2949686E-1,1.6299438E0,3.3596344E0,6.2958527E0,2.3885908E0,0E0,0E0,0E0,0E0,0E0,0E0,5.1044464E0,2.9318452E0,1.0392899E1,1.2463249E0,0E0,8.568855E0,3.919304E0,4.5899043E0,1.5064793E0,0E0,4.6026306E0,8.341994E-1,0E0,0E0,0E0,0E0,0E0,0E0,0E0,0E0,0E0,0E0,0E0,0E0,0E0],"parents":[2147483647,0,0,1,1,2,2,3,3,4,4,5,5,6,6,7,7,8,8,9,9,16,16,17,17,18,18,19,19,21,21,22,22,23,23,24,24,26,26,27,27],"right_children":[2,4,6,8,10,12,14,16,18,20,-1,-1,-1,-1,-1,-1,22,24,26,28,-1,30,32,34,36,-1,38,40,-1,-1,-1,-1,-1,-1,-1,-1,-1,-1,-1,-1,-1],"split_conditions":[5.129139E-1,4.9532902E-1,5.2916664E-1,4.5542765E-1,5.1008826E-1,5.223347E-1,5.468609E-1,4.3221906E-1,4.5638183E-1,5.0679857E-1,-2.2006502E-2,1.9358872E-2,5.143917E-3,4.014194E-2,5.2155662E-2,-4.598635E-2,4.4718853E-1,4.5587373E-1,4.576635E-1,5.047873E-1,2.1863848E-2,4.456004E-1,4.5095742E-1,4.5559195E-1,4.5602107E-1,-5.2310586E-2,4.5874578E-1,4.9763578E-1,-1.447756E-2,-2.9406732E-2,-4.813902E-3,-4.416908E-2,-2.9867008E-2,3.8294687E-3,-5.3251512E-2,2.1673616E-2,-3.1816864E-3,-7.5682783E-3,-2.4918122E-2,-4.5001074E-3,7.318118E-3],"split_indices":[0,0,0,0,0,0,0,0,0,0,0,0,0,0,0,0,0,0,0,0,0,0,0,0,0,0,0,0,0,0,0,0,0,0,0,0,0,0,0,0,0],"split_type":[0,0,0,0,0,0,0,0,0,0,0,0,0,0,0,0,0,0,0,0,0,0,0,0,0,0,0,0,0,0,0,0,0,0,0,0,0,0,0,0,0],"sum_hessian":[2.2417646E3,1.5249045E3,7.1686005E2,1.4079581E3,1.1694641E2,4.9181793E1,6.676782E2,5.136103E2,8.9434784E2,1.0713879E2,9.807625E0,3.320635E1,1.5975446E1,4.9229446E1,6.184488E2,4.0677273E1,4.7293304E2,3.789421E1,8.564537E2,8.864252E1,1.8496271E1,2.5191185E2,2.2102121E2,1.2903964E1,2.4990248E1,3.375167E1,8.2270197E2,7.993458E1,8.707936E0,2.0876962E2,4.3142227E1,9.1913826E1,1.2910738E2,7.3683414E0,5.5356226E0,8.472047E0,1.65182E1,4.1317493E1,7.813845E2,1.8915667E1,6.1018913E1],"tree_param":{"num_deleted":"0","num_feature":"1","num_nodes":"41","size_leaf_vector":"1"}},{"base_weights":[-9.132288E-3,-4.8312673E-1,9.287208E-1,-5.167652E-1,4.8866317E-2,4.507285E-1,1.0079236E0,-5.114841E-2,-5.0163734E-1,4.3230963E-1,-1.3785261E-1,2.3868825E-1,5.2693504E-1,4.320849E-2,1.0193992E0,1.9279186E-1,-5.104566E-1,1.2784979E-2,2.6486484E-2,1.2361287E-2,-3.612569E-1,1.3822557E-2,8.315081E-3,1.9682279E-2,2.7973814E-2,5.1695228E-2,4.399964E-2,-1.6096095E-3,1.924666E-2,-5.64489E-1,-4.0169242E-1,-1.9338379E-2,1.7152916E-1,-2.3793194E-2,-1.1527477E-2,-2.7324883E-2,-4.6743874E-2,-7.373082E-3,-2.3929384E-2,1.06555065E-2,5.5382545E-3],"categories":[],"categories_nodes":[],"categories_segments":[],"categories_sizes":[],"default_left":[0,0,0,0,0,0,0,0,0,0,0,0,0,0,0,0,0,0,0,0,0,0,0,0,0,0,0,0,0,0,0,0,0,0,0,0,0,0,0,0,0],"id":21,"left_children":[1,3,5,7,9,11,13,-1,15,17,19,21,23,-1,25,27,29,-1,-1,31,33,-1,-1,-1,-1,-1,-1,-1,-1,35,37,-1,39,-1,-1,-1,-1,-1,-1,-1,-1],"loss_changes":[9.915486E2,2.6540192E1,2.7895813E1,1.0158997E1,6.4337196E0,1.6234932E0,1.774292E-1,0E0,8.397888E0,3.7033987E-1,2.039167E0,3.7256837E-2,1.2157822E-1,0E0,2.803955E-1,7.7843076E-1,7.6389465E0,0E0,0E0,2.4309654E0,2.559526E-1,0E0,0E0,0E0,0E0,0E0,0E0,0E0,0E0,5.4314575E0,8.681488E0,0E0,4.537821E-2,0E0,0E0,0E0,0E0,0E0,0E0,0E0,0E0],"parents":[2147483647,0,0,1,1,2,2,3,3,4,4,5,5,6,6,8,8,9,9,10,10,11,11,12,12,14,14,15,15,16,16,19,19,20,20,29,29,30,30,32,32],"right_children":[2,4,6,8,10,12,14,-1,16,18,20,22,24,-1,26,28,30,-1,-1,32,34,-1,-1,-1,-1,-1,-1,-1,-1,36,38,-1,40,-1,-1,-1,-1,-1,-1,-1,-1],"split_conditions":[5.0679857E-1,4.9641207E-1,5.358859E-1,4.3221906E-1,4.9890438E-1,5.129139E-1,5.575834E-1,-5.114841E-2,4.3390614E-1,4.9763578E-1,5.034894E-1,5.1008826E-1,5.169075E-1,4.320849E-2,6.724056E-1,4.3304995E-1,4.700482E-1,1.2784979E-2,2.6486484E-2,4.9992865E-1,5.047873E-1,1.3822557E-2,8.315081E-3,1.9682279E-2,2.7973814E-2,5.1695228E-2,4.399964E-2,-1.6096095E-3,1.924666E-2,4.6844062E-1,4.7392648E-1,-1.9338379E-2,5.018553E-1,-2.3793194E-2,-1.1527477E-2,-2.7324883E-2,-4.6743874E-2,-7.373082E-3,-2.3929384E-2,1.06555065E-2,5.5382545E-3],"split_indices":[0,0,0,0,0,0,0,0,0,0,0,0,0,0,0,0,0,0,0,0,0,0,0,0,0,0,0,0,0,0,0,0,0,0,0,0,0,0,0,0,0],"split_type":[0,0,0,0,0,0,0,0,0,0,0,0,0,0,0,0,0,0,0,0,0,0,0,0,0,0,0,0,0,0,0,0,0,0,0,0,0,0,0,0,0],"sum_hessian":[2.2285098E3,1.4806624E3,7.478474E2,1.3926334E3,8.8028915E1,1.072542E2,6.405932E2,3.847786E1,1.3541555E3,2.8397308E1,5.9631603E1,2.9448263E1,7.780594E1,5.2998253E1,5.87595E2,1.6720596E1,1.3374349E3,1.1384102E1,1.7013206E1,3.622147E1,2.3410135E1,1.7499815E1,1.1948448E1,1.7837978E1,5.996796E1,5.264057E2,6.1189255E1,8.085499E0,8.6350975E0,8.907392E2,4.4669574E2,9.918909E0,2.630256E1,1.1066295E1,1.2343842E1,8.518373E2,3.890195E1,1.0441078E2,3.4228497E2,1.4127745E1,1.2174816E1],"tree_param":{"num_deleted":"0","num_feature":"1","num_nodes":"41","size_leaf_vector":"1"}},{"base_weights":[-2.4782345E-2,-4.3804085E-1,9.7481775E-1,-5.313829E-1,2.2741882E-2,6.166371E-1,5.0119925E-2,-8.9849687E-1,-5.1870805E-1,-1.5448782E-1,2.1019489E-1,2.3780178E-2,3.5685707E-2,-7.4151295E-1,-5.5072993E-2,3.4372393E-2,-5.255725E-1,-1.1373442E-1,-3.5415675E-2,2.482075E-1,-3.6392466E-3,-8.64884E-1,-1.1521476E-2,3.4334124E-3,-1.500259E-4,-5.408301E-1,-3.875691E-1,-1.6820331E-1,1.4793488E-2,2.0621138E-2,1.9478245E-1,-5.24345E-2,-3.0563325E-2,-2.6644781E-2,-5.63506E-2,3.8985435E-3,-2.4565056E-2,9.160991E-3,-1.1637031E-2,-1.9366536E-2,1.3884852E-2],"categories":[],"categories_nodes":[],"categories_segments":[],"categories_sizes":[],"default_left":[0,0,0,0,0,0,0,0,0,0,0,0,0,0,0,0,0,0,0,0,0,0,0,0,0,0,0,0,0,0,0,0,0,0,0,0,0,0,0,0,0],"id":22,"left_children":[1,3,5,7,9,11,-1,13,15,17,19,-1,-1,21,-1,23,25,27,-1,29,-1,31,-1,-1,-1,33,35,37,-1,-1,39,-1,-1,-1,-1,-1,-1,-1,-1,-1,-1],"loss_changes":[8.9293896E2,6.5787415E1,5.6279907E0,5.451416E0,8.622644E0,3.150406E-1,0E0,4.9201202E-1,4.694092E0,2.932214E0,1.3743138E0,0E0,0E0,1.4540491E0,0E0,2.0761875E-2,2.3520813E0,2.8503413E0,0E0,8.9681435E-1,0E0,3.2670403E-1,0E0,0E0,0E0,4.482788E0,6.0576324E0,2.5698762E0,0E0,0E0,4.2551746E0,0E0,0E0,0E0,0E0,0E0,0E0,0E0,0E0,0E0,0E0],"parents":[2147483647,0,0,1,1,2,2,3,3,4,4,5,5,7,7,8,8,9,9,10,10,13,13,15,15,16,16,17,17,19,19,21,21,25,25,26,26,27,27,30,30],"right_children":[2,4,6,8,10,12,-1,14,16,18,20,-1,-1,22,-1,24,26,28,-1,30,-1,32,-1,-1,-1,34,36,38,-1,-1,40,-1,-1,-1,-1,-1,-1,-1,-1,-1,-1],"split_conditions":[5.2916664E-1,4.8760706E-1,5.468609E-1,4.3221906E-1,4.9992865E-1,5.358859E-1,5.0119925E-2,4.293282E-1,4.3390614E-1,4.9890438E-1,5.223347E-1,2.3780178E-2,3.5685707E-2,4.283649E-1,-5.5072993E-2,4.3304995E-1,4.7934303E-1,4.9763578E-1,-3.5415675E-2,5.034894E-1,-3.6392466E-3,4.2557105E-1,-1.1521476E-2,3.4334124E-3,-1.500259E-4,4.7872046E-1,4.804115E-1,4.888745E-1,1.4793488E-2,2.0621138E-2,5.047873E-1,-5.24345E-2,-3.0563325E-2,-2.6644781E-2,-5.63506E-2,3.8985435E-3,-2.4565056E-2,9.160991E-3,-1.1637031E-2,-1.9366536E-2,1.3884852E-2],"split_indices":[0,0,0,0,0,0,0,0,0,0,0,0,0,0,0,0,0,0,0,0,0,0,0,0,0,0,0,0,0,0,0,0,0,0,0,0,0,0,0,0,0],"split_type":[0,0,0,0,0,0,0,0,0,0,0,0,0,0,0,0,0,0,0,0,0,0,0,0,0,0,0,0,0,0,0,0,0,0,0,0,0,0,0,0,0],"sum_hessian":[2.1595583E3,1.528289E3,6.312693E2,1.270722E3,2.5756693E2,4.6803745E1,5.844656E2,4.0075943E1,1.2306461E3,1.3248409E2,1.25082825E2,2.1486855E1,2.531689E1,2.5221527E1,1.4854416E1,1.5037494E1,1.2156086E3,1.2452616E2,7.9579287E0,1.1037858E2,1.4704245E1,1.97595E1,5.4620256E0,7.404894E0,7.6326E0,1.0919628E3,1.2364589E2,1.10430534E2,1.4095629E1,2.5445572E1,8.493301E1,9.638905E0,1.0120597E1,1.0792632E3,1.2699582E1,2.2575855E1,1.0107004E2,1.6848251E1,9.358228E1,1.0131559E1,7.4801445E1],"tree_param":{"num_deleted":"0","num_feature":"1","num_nodes":"41","size_leaf_vector":"1"}},{"base_weights":[-2.9934272E-2,-4.5934853E-1,8.849182E-1,-5.19676E-1,-4.3222312E-2,4.8014495E-1,9.5142853E-1,-4.9892038E-1,-7.4751014E-1,-1.9838083E-1,9.128601E-2,1.6869657E-2,2.7369393E-2,9.6648467E-1,3.918346E-2,-5.068771E-1,-6.856241E-2,-5.812472E-2,-6.538129E-1,1.4420922E-1,-3.1726372E-1,1.1450931E-1,-4.7024037E-3,4.719047E-2,5.3268682E-2,-5.491907E-1,-4.4482085E-1,2.3302853E-2,-2.1368727E-2,-1.7336422E-1,-7.441717E-1,9.339263E-3,4.195098E-3,-4.584249E-1,-1.8414131E-1,1.07431505E-2,9.204171E-2,-2.274331E-2,-3.0647293E-2,-1.4720517E-3,-2.4724258E-2,-2.3096537E-2,6.4725215E-3,-4.4063665E-2,-2.4271198E-2,-6.929256E-3,-2.8840518E-2,9.345834E-3,-1.6580053E-2,3.2739341E-3,6.516959E-3],"categories":[],"categories_nodes":[],"categories_segments":[],"categories_sizes":[],"default_left":[0,0,0,0,0,0,0,0,0,0,0,0,0,0,0,0,0,0,0,0,0,0,0,0,0,0,0,0,0,0,0,0,0,0,0,0,0,0,0,0,0,0,0,0,0,0,0,0,0,0,0],"id":23,"left_children":[1,3,5,7,9,11,13,15,17,19,21,-1,-1,23,-1,25,27,-1,29,31,33,35,-1,-1,-1,37,39,-1,-1,41,43,-1,-1,45,47,-1,49,-1,-1,-1,-1,-1,-1,-1,-1,-1,-1,-1,-1,-1,-1],"loss_changes":[8.415402E2,3.6574036E1,1.7965637E1,5.6474915E0,3.8931603E0,7.6169586E-1,7.2454834E-1,3.9710388E0,3.295082E0,3.5701232E0,4.4178098E-1,0E0,0E0,1.9207764E-1,0E0,2.7713013E0,4.494699E0,0E0,3.663803E0,4.3333054E-2,1.1286659E0,1.8188608E-1,0E0,0E0,0E0,3.8019562E0,9.699165E0,0E0,0E0,1.3822213E0,2.1701088E0,0E0,0E0,1.0809731E0,1.9712653E0,0E0,6.758851E-2,0E0,0E0,0E0,0E0,0E0,0E0,0E0,0E0,0E0,0E0,0E0,0E0,0E0,0E0],"parents":[2147483647,0,0,1,1,2,2,3,3,4,4,5,5,6,6,7,7,8,8,9,9,10,10,13,13,15,15,16,16,18,18,19,19,20,20,21,21,25,25,26,26,29,29,30,30,33,33,34,34,36,36],"right_children":[2,4,6,8,10,12,14,16,18,20,22,-1,-1,24,-1,26,28,-1,30,32,34,36,-1,-1,-1,38,40,-1,-1,42,44,-1,-1,46,48,-1,50,-1,-1,-1,-1,-1,-1,-1,-1,-1,-1,-1,-1,-1,-1],"split_conditions":[5.129139E-1,4.895031E-1,5.468609E-1,4.811616E-1,4.9763578E-1,5.223347E-1,6.724056E-1,4.7999778E-1,4.8238015E-1,4.9072433E-1,5.1008826E-1,1.6869657E-2,2.7369393E-2,6.555961E-1,3.918346E-2,4.6164355E-1,4.804115E-1,-5.812472E-2,4.830567E-1,4.9007395E-1,4.9352345E-1,4.9890438E-1,-4.7024037E-3,4.719047E-2,5.3268682E-2,4.4718853E-1,4.633707E-1,2.3302853E-2,-2.1368727E-2,4.8269403E-1,4.869886E-1,9.339263E-3,4.195098E-3,4.9137968E-1,4.9434683E-1,1.07431505E-2,5.047873E-1,-2.274331E-2,-3.0647293E-2,-1.4720517E-3,-2.4724258E-2,-2.3096537E-2,6.4725215E-3,-4.4063665E-2,-2.4271198E-2,-6.929256E-3,-2.8840518E-2,9.345834E-3,-1.6580053E-2,3.2739341E-3,6.516959E-3],"split_indices":[0,0,0,0,0,0,0,0,0,0,0,0,0,0,0,0,0,0,0,0,0,0,0,0,0,0,0,0,0,0,0,0,0,0,0,0,0,0,0,0,0,0,0,0,0,0,0,0,0,0,0],"split_type":[0,0,0,0,0,0,0,0,0,0,0,0,0,0,0,0,0,0,0,0,0,0,0,0,0,0,0,0,0,0,0,0,0,0,0,0,0,0,0,0,0,0,0,0,0,0,0,0,0,0,0],"sum_hessian":[2.140103E3,1.4568047E3,6.8329834E2,1.27213E3,1.8467464E2,9.759105E1,5.857073E2,1.168839E3,1.0329099E2,8.5534134E1,9.91405E1,3.3176735E1,6.4414314E1,5.3310114E2,5.260615E1,1.1474464E3,2.139256E1,1.6924715E1,8.636628E1,2.1980095E1,6.3554043E1,8.84406E1,1.0699907E1,4.4223953E2,9.086162E1,6.7758185E2,4.6986462E2,8.471454E0,1.2921104E1,1.41338E1,7.2232475E1,1.1654772E1,1.0325323E1,2.9659687E1,3.3894356E1,1.4611903E1,7.382869E1,2.7655643E2,4.0102542E2,5.0349205E1,4.195154E2,6.968104E0,7.1656957E0,4.5642273E1,2.6590202E1,8.598882E0,2.1060804E1,9.563021E0,2.4331333E1,4.5192814E1,2.8635878E1],"tree_param":{"num_deleted":"0","num_feature":"1","num_nodes":"51","size_leaf_vector":"1"}},{"base_weights":[-6.5273023E-3,-4.4493452E-1,8.428469E-1,-4.933342E-1,-6.2276404E-2,3.0174714E-1,9.252681E-1,-5.6497097E-1,-4.497681E-1,-7.6455744E-3,-6.0482886E-2,1.144222E-2,1.6514853E-2,3.2617833E-2,4.7435682E-2,-5.520373E-1,-5.322854E-2,-3.970088E-3,-4.7940448E-1,-1.13748856E-1,2.08685E-1,-5.1241715E-2,-5.407806E-1,-2.7243894E-1,3.1321374E-1,-8.500896E-1,-4.614849E-1,1.53177185E-2,-1.5815684E-1,3.113946E-1,9.487335E-2,-2.2360392E-2,-2.9889708E-2,-2.0532412E-2,-6.2383036E-3,3.608593E-2,4.164079E-3,-2.8381515E-2,-5.5792876E-2,-1.40938535E-2,-2.6117245E-2,-5.0442006E-2,-4.693767E-3,1.756752E-2,1.0689086E-2,9.051544E-4,8.527426E-3],"categories":[],"categories_nodes":[],"categories_segments":[],"categories_sizes":[],"default_left":[0,0,0,0,0,0,0,0,0,0,0,0,0,0,0,0,0,0,0,0,0,0,0,0,0,0,0,0,0,0,0,0,0,0,0,0,0,0,0,0,0,0,0,0,0,0,0],"id":24,"left_children":[1,3,5,7,9,11,13,15,17,19,-1,-1,-1,-1,-1,21,-1,23,25,27,29,-1,31,33,35,37,39,-1,41,43,45,-1,-1,-1,-1,-1,-1,-1,-1,-1,-1,-1,-1,-1,-1,-1,-1],"loss_changes":[7.8722833E2,2.5793732E1,3.1818817E1,3.608551E0,9.876139E0,1.2551689E-1,3.3743896E0,2.4114532E0,1.0230972E1,3.5022008E0,0E0,0E0,0E0,0E0,0E0,1.8647461E0,0E0,4.2824445E0,4.431717E0,1.9573854E0,5.575247E-1,0E0,2.11232E0,5.045023E-1,2.1058378E0,1.791399E0,7.449005E0,0E0,5.001789E0,2.6137352E-2,1.4367129E-1,0E0,0E0,0E0,0E0,0E0,0E0,0E0,0E0,0E0,0E0,0E0,0E0,0E0,0E0,0E0,0E0],"parents":[2147483647,0,0,1,1,2,2,3,3,4,4,5,5,6,6,7,7,8,8,9,9,15,15,17,17,18,18,19,19,20,20,22,22,23,23,24,24,25,25,26,26,28,28,29,29,30,30],"right_children":[2,4,6,8,10,12,14,16,18,20,-1,-1,-1,-1,-1,22,-1,24,26,28,30,-1,32,34,36,38,40,-1,42,44,46,-1,-1,-1,-1,-1,-1,-1,-1,-1,-1,-1,-1,-1,-1,-1,-1],"split_conditions":[5.047873E-1,4.8840445E-1,5.2916664E-1,4.54986E-1,5.034894E-1,5.1008826E-1,5.468609E-1,4.5459145E-1,4.5638183E-1,4.9763578E-1,-6.0482886E-2,1.144222E-2,1.6514853E-2,3.2617833E-2,4.7435682E-2,4.2557105E-1,-5.322854E-2,4.5587373E-1,4.576635E-1,4.888745E-1,4.9992865E-1,-5.1241715E-2,4.429583E-1,4.5542765E-1,4.5602107E-1,4.5696157E-1,4.633707E-1,1.53177185E-2,4.895031E-1,4.9890438E-1,5.018553E-1,-2.2360392E-2,-2.9889708E-2,-2.0532412E-2,-6.2383036E-3,3.608593E-2,4.164079E-3,-2.8381515E-2,-5.5792876E-2,-1.40938535E-2,-2.6117245E-2,-5.0442006E-2,-4.693767E-3,1.756752E-2,1.0689086E-2,9.051544E-4,8.527426E-3],"split_indices":[0,0,0,0,0,0,0,0,0,0,0,0,0,0,0,0,0,0,0,0,0,0,0,0,0,0,0,0,0,0,0,0,0,0,0,0,0,0,0,0,0,0,0,0,0,0,0],"split_type":[0,0,0,0,0,0,0,0,0,0,0,0,0,0,0,0,0,0,0,0,0,0,0,0,0,0,0,0,0,0,0,0,0,0,0,0,0,0,0,0,0,0,0,0,0,0,0],"sum_hessian":[2.1120854E3,1.3933694E3,7.18716E2,1.2366635E3,1.5670596E2,9.56209E1,6.230951E2,4.6314145E2,7.7352203E2,1.5054468E2,6.161294E0,2.9445885E1,6.617502E1,5.157499E1,5.715201E2,4.5350598E2,9.635462E0,4.828851E1,7.252335E2,1.013231E2,4.9221577E1,8.452386E0,4.450536E2,2.622899E1,2.2059519E1,3.1301003E1,6.939325E2,9.1227255E0,9.220037E1,2.4960163E1,2.4261414E1,1.7185045E2,2.7320312E2,1.2628751E1,1.360024E1,7.174405E0,1.4885113E1,1.6694174E1,1.4606828E1,1.770526E2,5.1687994E2,5.445259E0,8.675511E1,1.5866232E1,9.09393E0,1.2658725E1,1.1602689E1],"tree_param":{"num_deleted":"0","num_feature":"1","num_nodes":"47","size_leaf_vector":"1"}},{"base_weights":[-1.5434407E-2,-4.2111248E-1,8.488808E-1,-4.9493337E-1,8.462118E-3,3.8360858E-1,9.0566003E-1,-5.397445E-2,-4.8611218E-1,-9.000961E-2,9.476202E-2,3.0006316E-1,2.8113876E-2,3.3823278E-2,4.5738023E-2,-3.8439023E-1,-5.1335996E-1,2.622659E-1,-1.6199973E-1,1.3736193E-1,-1.7699104E-2,2.1615004E-2,1.1291591E-4,-4.7892088E-1,1.0696837E-1,-7.637231E-1,-4.876403E-1,3.2286588E-3,2.0605486E-2,-4.935366E-2,-9.550744E-2,7.239965E-2,2.7989215E-1,-1.7140139E-2,-2.9591268E-2,4.3418873E-2,-3.1310387E-3,-3.0854521E-2,-4.109633E-2,2.0056816E-3,-2.5160689E-2,-7.3706504E-4,-2.3105806E-2,1.4385863E-2,-2.6231331E-3,1.0314728E-2,1.564698E-2],"categories":[],"categories_nodes":[],"categories_segments":[],"categories_sizes":[],"default_left":[0,0,0,0,0,0,0,0,0,0,0,0,0,0,0,0,0,0,0,0,0,0,0,0,0,0,0,0,0,0,0,0,0,0,0,0,0,0,0,0,0,0,0,0,0,0,0],"id":25,"left_children":[1,3,5,7,9,11,13,-1,15,17,19,21,-1,-1,-1,23,25,27,29,31,-1,-1,-1,33,35,37,39,-1,-1,-1,41,43,45,-1,-1,-1,-1,-1,-1,-1,-1,-1,-1,-1,-1,-1,-1],"loss_changes":[7.28719E2,4.4856735E1,1.7190887E1,5.6990967E0,1.7795144E0,9.349766E-1,6.13739E-1,0E0,3.1033936E0,2.5239382E0,2.181067E0,2.0675297E0,0E0,0E0,0E0,1.1922443E1,5.6565704E0,4.765296E-1,4.3968077E0,9.297092E-1,0E0,0E0,0E0,3.0940094E0,5.4846544E0,2.2213745E-1,7.021332E0,0E0,0E0,0E0,2.2691183E0,1.9461408E0,1.27213E-2,0E0,0E0,0E0,0E0,0E0,0E0,0E0,0E0,0E0,0E0,0E0,0E0,0E0,0E0],"parents":[2147483647,0,0,1,1,2,2,3,3,4,4,5,5,6,6,8,8,9,9,10,10,11,11,15,15,16,16,17,17,18,18,19,19,23,23,24,24,25,25,26,26,30,30,31,31,32,32],"right_children":[2,4,6,8,10,12,14,-1,16,18,20,22,-1,-1,-1,24,26,28,30,32,-1,-1,-1,34,36,38,40,-1,-1,-1,42,44,46,-1,-1,-1,-1,-1,-1,-1,-1,-1,-1,-1,-1,-1,-1],"split_conditions":[5.129139E-1,4.8760706E-1,5.358859E-1,4.283649E-1,4.9641207E-1,5.2916664E-1,5.468609E-1,-5.397445E-2,4.4718853E-1,4.888745E-1,5.1008826E-1,5.223347E-1,2.8113876E-2,3.3823278E-2,4.5738023E-2,4.456004E-1,4.5095742E-1,4.8840445E-1,4.895031E-1,5.047873E-1,-1.7699104E-2,2.1615004E-2,1.1291591E-4,4.3928683E-1,4.458871E-1,4.4831464E-1,4.5189402E-1,3.2286588E-3,2.0605486E-2,-4.935366E-2,4.9434683E-1,4.9890438E-1,5.0679857E-1,-1.7140139E-2,-2.9591268E-2,4.3418873E-2,-3.1310387E-3,-3.0854521E-2,-4.109633E-2,2.0056816E-3,-2.5160689E-2,-7.3706504E-4,-2.3105806E-2,1.4385863E-2,-2.6231331E-3,1.0314728E-2,1.564698E-2],"split_indices":[0,0,0,0,0,0,0,0,0,0,0,0,0,0,0,0,0,0,0,0,0,0,0,0,0,0,0,0,0,0,0,0,0,0,0,0,0,0,0,0,0,0,0,0,0,0,0],"split_type":[0,0,0,0,0,0,0,0,0,0,0,0,0,0,0,0,0,0,0,0,0,0,0,0,0,0,0,0,0,0,0,0,0,0,0,0,0,0,0,0,0,0,0,0,0,0,0],"sum_hessian":[2.0762717E3,1.4133905E3,6.628812E2,1.2059928E3,2.0739775E2,7.2939705E1,5.899415E2,1.6123993E1,1.1898688E3,9.684764E1,1.1055012E2,5.1525753E1,2.141395E1,2.5406492E1,5.6453503E2,2.5457834E2,9.352904E2,1.5984794E1,8.086285E1,1.0159907E2,8.951048E0,3.536895E1,1.6156803E1,2.1352449E2,4.105386E1,8.4457756E1,8.5083264E2,7.5089645E0,8.475829E0,4.998145E0,7.58647E1,7.082602E1,3.0773054E1,9.863997E1,1.14884514E2,6.727725E0,3.4326134E1,2.7295147E1,5.7162605E1,2.4342329E1,8.2649036E2,6.3020996E1,1.2843704E1,2.5517807E1,4.5308212E1,1.1780327E1,1.8992727E1],"tree_param":{"num_deleted":"0","num_feature":"1","num_nodes":"47","size_leaf_vector":"1"}},{"base_weights":[-4.4289343E-2,-4.2409536E-1,8.5608345E-1,-5.023768E-1,-2.116577E-2,5.3161037E-1,8.941032E-1,-9.771836E-1,-4.873465E-1,1.789553E-2,-3.7573952E-2,2.2214675E-2,3.2836325E-2,4.5575254E-2,3.843803E-2,-6.9933754E-1,-5.53207E-2,-2.7181464E-1,-5.030958E-1,-4.9319144E-2,-1.0463494E-2,-5.0436266E-2,-4.3616705E-3,-4.0009448E-1,2.0811932E-2,-6.344345E-1,-4.4385383E-1,2.3745081E-1,-3.7470374E-2,-7.312637E-3,-3.17944E-2,1.3724585E-2,-1.4000999E-2,-2.4994751E-2,-3.7044566E-2,-2.1577535E-2,-3.884959E-2,9.14859E-3,1.41462805E-2,-2.6762186E-2,1.5371101E-4],"categories":[],"categories_nodes":[],"categories_segments":[],"categories_sizes":[],"default_left":[0,0,0,0,0,0,0,0,0,0,0,0,0,0,0,0,0,0,0,0,0,0,0,0,0,0,0,0,0,0,0,0,0,0,0,0,0,0,0,0,0],"id":26,"left_children":[1,3,5,7,9,11,13,15,17,-1,19,-1,-1,-1,-1,21,-1,23,25,-1,27,-1,-1,29,31,33,35,37,39,-1,-1,-1,-1,-1,-1,-1,-1,-1,-1,-1,-1],"loss_changes":[6.924821E2,4.4909424E1,6.9362793E0,8.033508E0,1.4609377E0,4.2358017E-1,4.691162E-1,5.042763E-1,3.793457E0,0E0,5.750702E0,0E0,0E0,0E0,0E0,2.5666127E0,0E0,3.0496101E0,8.104584E0,0E0,1.4735547E0,0E0,0E0,3.2813416E0,2.0337799E0,4.3948975E0,2.7226868E0,1.8087626E-3,4.0003133E0,0E0,0E0,0E0,0E0,0E0,0E0,0E0,0E0,0E0,0E0,0E0,0E0],"parents":[2147483647,0,0,1,1,2,2,3,3,4,4,5,5,6,6,7,7,8,8,10,10,15,15,17,17,18,18,20,20,23,23,24,24,25,25,26,26,27,27,28,28],"right_children":[2,4,6,8,10,12,14,16,18,-1,20,-1,-1,-1,-1,22,-1,24,26,-1,28,-1,-1,30,32,34,36,38,40,-1,-1,-1,-1,-1,-1,-1,-1,-1,-1,-1,-1],"split_conditions":[5.223347E-1,4.8840445E-1,5.468609E-1,4.3221906E-1,4.888745E-1,5.358859E-1,6.647095E-1,4.2743942E-1,4.3928683E-1,1.789553E-2,4.895031E-1,2.2214675E-2,3.2836325E-2,4.5575254E-2,3.843803E-2,4.2557105E-1,-5.53207E-2,4.375587E-1,4.551834E-1,-4.9319144E-2,4.9072433E-1,-5.0436266E-2,-4.3616705E-3,4.3522605E-1,4.385613E-1,4.4718853E-1,4.860154E-1,4.9007395E-1,4.9212167E-1,-7.312637E-3,-3.17944E-2,1.3724585E-2,-1.4000999E-2,-2.4994751E-2,-3.7044566E-2,-2.1577535E-2,-3.884959E-2,9.14859E-3,1.41462805E-2,-2.6762186E-2,1.5371101E-4],"split_indices":[0,0,0,0,0,0,0,0,0,0,0,0,0,0,0,0,0,0,0,0,0,0,0,0,0,0,0,0,0,0,0,0,0,0,0,0,0,0,0,0,0],"split_type":[0,0,0,0,0,0,0,0,0,0,0,0,0,0,0,0,0,0,0,0,0,0,0,0,0,0,0,0,0,0,0,0,0,0,0,0,0,0,0,0,0],"sum_hessian":[2.0229352E3,1.4231388E3,5.997964E2,1.1914216E3,2.3171712E2,6.448057E1,5.3531586E2,3.4593777E1,1.1568279E3,8.750162E0,2.2296696E2,4.065738E1,2.3823189E1,4.6454865E2,7.076718E1,1.3017543E1,2.1576237E1,8.0018616E1,1.0768092E3,5.210946E0,2.1775601E2,8.216536E0,4.801007E0,5.537598E1,2.4642635E1,3.317078E2,7.4510144E2,2.0625792E1,1.9713022E2,2.7447662E1,2.7928318E1,1.3416546E1,1.12260895E1,1.4904338E2,1.8266441E2,7.207778E2,2.4323666E1,1.16693945E1,8.956397E0,1.3928324E1,1.8320189E2],"tree_param":{"num_deleted":"0","num_feature":"1","num_nodes":"41","size_leaf_vector":"1"}},{"base_weights":[-2.0962548E-2,-4.014216E-1,8.082839E-1,-4.565036E-1,-1.3710448E-1,3.5686594E-1,8.676249E-1,-4.140586E-2,-4.44208E-1,1.2487524E-2,-1.6142908E-1,2.962535E-1,2.4375293E-2,3.6513496E-2,8.788886E-1,-3.2783046E-1,-4.7411957E-1,-4.9004123E-1,-1.1143532E-1,3.3199716E-1,1.0189388E-2,4.9701765E-2,8.55393E-1,-4.6108344E-1,1.2377469E-1,-8.7078196E-1,-4.309125E-1,-6.7695403E-1,-1.721402E-2,1.6947376E-2,-1.3434961E-1,1.2057099E-2,1.9518726E-2,3.4179598E-2,8.7501025E-1,-2.0689437E-2,-5.4519456E-2,4.2996615E-2,-1.8529703E-4,-3.3841252E-2,-5.1653504E-2,6.1805733E-3,-2.2375353E-2,-1.8267648E-2,-4.876706E-2,-4.8686218E-2,-5.3000078E-3,4.5061767E-2,3.9512806E-2],"categories":[],"categories_nodes":[],"categories_segments":[],"categories_sizes":[],"default_left":[0,0,0,0,0,0,0,0,0,0,0,0,0,0,0,0,0,0,0,0,0,0,0,0,0,0,0,0,0,0,0,0,0,0,0,0,0,0,0,0,0,0,0,0,0,0,0,0,0],"id":27,"left_children":[1,3,5,7,9,11,13,-1,15,-1,17,19,-1,-1,21,23,25,27,29,31,-1,-1,33,35,37,39,41,43,-1,-1,45,-1,-1,-1,47,-1,-1,-1,-1,-1,-1,-1,-1,-1,-1,-1,-1,-1,-1],"loss_changes":[6.347496E2,2.001622E1,1.6640717E1,4.8449707E0,2.2918324E0,4.5115662E-1,2.2232056E-1,0E0,3.6962585E0,0E0,3.6536303E0,1.10574245E-1,0E0,0E0,5.3302E-1,1.3866716E1,1.4672394E1,5.709572E-1,2.0807621E0,1.0371399E-1,0E0,0E0,8.5723877E-1,4.8289757E0,4.9838557E0,1.9846115E0,7.3592834E0,7.4966574E-1,0E0,0E0,4.379353E0,0E0,0E0,0E0,1.4129639E-1,0E0,0E0,0E0,0E0,0E0,0E0,0E0,0E0,0E0,0E0,0E0,0E0,0E0,0E0],"parents":[2147483647,0,0,1,1,2,2,3,3,4,4,5,5,6,6,8,8,10,10,11,11,14,14,15,15,16,16,17,17,18,18,19,19,22,22,23,23,24,24,25,25,26,26,27,27,30,30,34,34],"right_children":[2,4,6,8,10,12,14,-1,16,-1,18,20,-1,-1,22,24,26,28,30,32,-1,-1,34,36,38,40,42,44,-1,-1,46,-1,-1,-1,48,-1,-1,-1,-1,-1,-1,-1,-1,-1,-1,-1,-1,-1,-1],"split_conditions":[5.129139E-1,4.8454836E-1,5.358859E-1,4.3221906E-1,4.855264E-1,5.2916664E-1,5.575834E-1,-4.140586E-2,4.4696906E-1,1.2487524E-2,4.8840445E-1,5.223347E-1,2.4375293E-2,3.6513496E-2,5.839779E-1,4.4481504E-1,4.5095742E-1,4.8645678E-1,4.888745E-1,5.169075E-1,1.0189388E-2,4.9701765E-2,5.984375E-1,4.4423467E-1,4.4505352E-1,4.4887596E-1,4.5189402E-1,4.860154E-1,-1.721402E-2,1.6947376E-2,4.895031E-1,1.2057099E-2,1.9518726E-2,3.4179598E-2,6.5947515E-1,-2.0689437E-2,-5.4519456E-2,4.2996615E-2,-1.8529703E-4,-3.3841252E-2,-5.1653504E-2,6.1805733E-3,-2.2375353E-2,-1.8267648E-2,-4.876706E-2,-4.8686218E-2,-5.3000078E-3,4.5061767E-2,3.9512806E-2],"split_indices":[0,0,0,0,0,0,0,0,0,0,0,0,0,0,0,0,0,0,0,0,0,0,0,0,0,0,0,0,0,0,0,0,0,0,0,0,0,0,0,0,0,0,0,0,0,0,0,0,0],"split_type":[0,0,0,0,0,0,0,0,0,0,0,0,0,0,0,0,0,0,0,0,0,0,0,0,0,0,0,0,0,0,0,0,0,0,0,0,0,0,0,0,0,0,0,0,0,0,0,0,0],"sum_hessian":[2.0098923E3,1.3781238E3,6.3176855E2,1.1398577E3,2.382661E2,7.421493E1,5.575536E2,3.438158E1,1.1054761E3,1.3547125E1,2.2471898E2,5.2926544E1,2.1288385E1,4.724626E1,5.1030734E2,2.2848096E2,8.769951E2,2.8511179E1,1.962078E2,3.6302803E1,1.6623741E1,7.948111E1,4.3082623E2,1.7640808E2,5.2072876E1,8.426324E1,7.927319E2,1.0895421E1,1.7615759E1,8.831515E0,1.8737628E2,1.6208136E1,2.0094667E1,4.7826294E1,3.8299994E2,1.6561874E2,1.0789345E1,6.8383164E0,4.523456E1,4.0741734E1,4.3521503E1,2.2846405E1,7.698855E2,6.417818E0,4.477603E0,5.032292E0,1.82344E2,2.8513754E2,9.786242E1],"tree_param":{"num_deleted":"0","num_feature":"1","num_nodes":"49","size_leaf_vector":"1"}},{"base_weights":[-9.298972E-3,-3.525912E-1,7.86743E-1,-3.947698E-1,2.5989631E-2,3.6641884E-1,4.1586246E-2,-3.8842088E-1,-4.4500235E-2,7.077245E-2,-1.6432434E-1,2.3562094E-2,3.0377287E-1,-4.0217683E-1,-1.7042245E-1,-5.30802E-3,2.0000136E-2,-1.0364468E-2,-5.834951E-3,1.0347969E-2,1.8939946E-2,-3.9505228E-1,-8.3806694E-1,-2.4237956E-1,4.983766E-2,5.327315E-2,-1.2455351E-1,-2.052663E-2,-1.0014826E-2,-5.4195087E-2,-1.6166909E-2,-5.8359075E-3,-5.4145046E-2,7.789492E-3,-4.101084E-3,-7.094701E-3,7.3983E-3,-8.929643E-3,-7.350351E-4],"categories":[],"categories_nodes":[],"categories_segments":[],"categories_sizes":[],"default_left":[0,0,0,0,0,0,0,0,0,0,0,0,0,0,0,0,0,0,0,0,0,0,0,0,0,0,0,0,0,0,0,0,0,0,0,0,0,0,0],"id":28,"left_children":[1,3,5,7,9,11,-1,13,-1,15,17,-1,19,21,23,25,-1,-1,-1,-1,-1,27,29,31,33,35,37,-1,-1,-1,-1,-1,-1,-1,-1,-1,-1,-1,-1],"loss_changes":[5.3796173E2,2.1972717E1,1.0909973E1,3.5455475E0,1.1947153E0,2.451315E-1,0E0,3.601059E0,0E0,2.834324E0,3.053236E-2,0E0,2.1086693E-1,3.2412872E0,1.1907752E0,6.5512705E-1,0E0,0E0,0E0,0E0,0E0,3.3358307E0,1.8776016E0,5.812317E0,2.802135E-1,1.1844051E0,1.8069896E-1,0E0,0E0,0E0,0E0,0E0,0E0,0E0,0E0,0E0,0E0,0E0,0E0],"parents":[2147483647,0,0,1,1,2,2,3,3,4,4,5,5,7,7,9,9,10,10,12,12,13,13,14,14,15,15,21,21,22,22,23,23,24,24,25,25,26,26],"right_children":[2,4,6,8,10,12,-1,14,-1,16,18,-1,20,22,24,26,-1,-1,-1,-1,-1,28,30,32,34,36,38,-1,-1,-1,-1,-1,-1,-1,-1,-1,-1,-1,-1],"split_conditions":[5.169075E-1,4.9532902E-1,5.358859E-1,4.9352345E-1,5.1008826E-1,5.223347E-1,4.1586246E-2,4.8760706E-1,-4.4500235E-2,5.0679857E-1,5.129139E-1,2.3562094E-2,5.2916664E-1,4.860154E-1,4.9212167E-1,5.018553E-1,2.0000136E-2,-1.0364468E-2,-5.834951E-3,1.0347969E-2,1.8939946E-2,4.7999778E-1,4.869886E-1,4.9137968E-1,4.9277192E-1,4.9763578E-1,5.047873E-1,-2.052663E-2,-1.0014826E-2,-5.4195087E-2,-1.6166909E-2,-5.8359075E-3,-5.4145046E-2,7.789492E-3,-4.101084E-3,-7.094701E-3,7.3983E-3,-8.929643E-3,-7.350351E-4],"split_indices":[0,0,0,0,0,0,0,0,0,0,0,0,0,0,0,0,0,0,0,0,0,0,0,0,0,0,0,0,0,0,0,0,0,0,0,0,0,0,0],"split_type":[0,0,0,0,0,0,0,0,0,0,0,0,0,0,0,0,0,0,0,0,0,0,0,0,0,0,0,0,0,0,0,0,0,0,0,0,0,0,0],"sum_hessian":[1.9665577E3,1.3744044E3,5.921533E2,1.2365902E3,1.3781429E2,5.8128605E1,5.340247E2,1.2226995E3,1.3890722E1,1.1207097E2,2.574331E1,1.9304634E1,3.882397E1,1.1493304E3,7.3369026E1,9.1833435E1,2.0237532E1,1.1771337E1,1.3971974E1,1.8591732E1,2.023224E1,1.1327225E3,1.6607868E1,5.5226555E1,1.8142473E1,6.195188E1,2.9881557E1,1.0482903E3,8.443221E1,1.0491397E1,6.116472E0,4.903455E1,6.192004E0,9.958828E0,8.183645E0,2.0075893E1,4.1875984E1,1.960944E1,1.0272119E1],"tree_param":{"num_deleted":"0","num_feature":"1","num_nodes":"39","size_leaf_vector":"1"}},{"base_weights":[-1.5437031E-2,-3.417327E-1,7.548844E-1,-4.0859407E-1,3.7668895E-2,3.9038834E-1,7.977872E-1,-5.688181E-1,-3.860114E-1,-1.16896994E-1,1.4721075E-1,1.52316755E-2,2.5634453E-2,8.12396E-1,3.1009162E-2,-4.416678E-1,-8.2415473E-1,6.8107426E-2,-3.9988154E-1,1.8931847E-2,-2.1098469E-1,2.0664567E-2,9.82175E-2,3.9678626E-2,9.1030174E-1,-5.757133E-1,2.4856376E-2,-6.700139E-1,-9.265015E-1,-3.9471745E-1,-3.8623523E-2,-3.967134E-1,-1.202757E-1,1.366929E-1,-1.4580102E-2,5.2522387E-2,4.0575814E-2,-2.4469666E-2,-5.398155E-2,-3.989226E-2,-1.3474412E-2,-5.4824617E-2,-3.0405147E-2,-2.0681903E-2,-1.1882582E-2,-1.1084591E-2,-2.4517825E-2,1.5929928E-2,-1.110994E-2,2.601208E-3,1.7632065E-2,-3.7518784E-3,1.4493432E-3],"categories":[],"categories_nodes":[],"categories_segments":[],"categories_sizes":[],"default_left":[0,0,0,0,0,0,0,0,0,0,0,0,0,0,0,0,0,0,0,0,0,0,0,0,0,0,0,0,0,0,0,0,0,0,0,0,0,0,0,0,0,0,0,0,0,0,0,0,0,0,0,0,0],"id":29,"left_children":[1,3,5,7,9,11,13,15,17,19,21,-1,-1,23,-1,25,27,-1,29,-1,31,-1,33,-1,35,37,-1,39,41,43,-1,45,47,49,51,-1,-1,-1,-1,-1,-1,-1,-1,-1,-1,-1,-1,-1,-1,-1,-1,-1,-1],"loss_changes":[4.8716302E2,3.4551376E1,8.707001E0,3.96875E0,3.4863398E0,5.0130653E-1,8.3236694E-1,4.209938E0,2.522017E1,4.068036E0,1.5283573E0,0E0,0E0,1.4865112E-1,0E0,1.239267E1,9.9861145E-2,0E0,1.6392212E0,0E0,1.1742442E0,0E0,4.4879222E-1,0E0,1.08608246E-1,3.1536427E0,0E0,9.031782E-1,6.7765236E-1,2.8694763E0,0E0,2.7423573E-1,2.314812E0,1.3870091E0,7.352491E-2,0E0,0E0,0E0,0E0,0E0,0E0,0E0,0E0,0E0,0E0,0E0,0E0,0E0,0E0,0E0,0E0,0E0,0E0],"parents":[2147483647,0,0,1,1,2,2,3,3,4,4,5,5,6,6,7,7,8,8,9,9,10,10,13,13,15,15,16,16,18,18,20,20,22,22,24,24,25,25,27,27,28,28,29,29,31,31,32,32,33,33,34,34],"right_children":[2,4,6,8,10,12,14,16,18,20,22,-1,-1,24,-1,26,28,-1,30,-1,32,-1,34,-1,36,38,-1,40,42,44,-1,46,48,50,52,-1,-1,-1,-1,-1,-1,-1,-1,-1,-1,-1,-1,-1,-1,-1,-1,-1,-1],"split_conditions":[5.169075E-1,4.895031E-1,5.358859E-1,4.4173902E-1,4.9763578E-1,5.2916664E-1,6.724056E-1,4.385613E-1,4.4204733E-1,4.9007395E-1,4.9890438E-1,1.52316755E-2,2.5634453E-2,6.555961E-1,3.1009162E-2,4.375587E-1,4.4008145E-1,6.8107426E-2,4.8840445E-1,1.8931847E-2,4.9212167E-1,2.0664567E-2,5.1008826E-1,3.9678626E-2,6.5947515E-1,4.3652046E-1,2.4856376E-2,4.3959934E-1,4.4115368E-1,4.7999778E-1,-3.8623523E-2,4.9072433E-1,4.9277192E-1,5.0679857E-1,5.129139E-1,5.2522387E-2,4.0575814E-2,-2.4469666E-2,-5.398155E-2,-3.989226E-2,-1.3474412E-2,-5.4824617E-2,-3.0405147E-2,-2.0681903E-2,-1.1882582E-2,-1.1084591E-2,-2.4517825E-2,1.5929928E-2,-1.110994E-2,2.601208E-3,1.7632065E-2,-3.7518784E-3,1.4493432E-3],"split_indices":[0,0,0,0,0,0,0,0,0,0,0,0,0,0,0,0,0,0,0,0,0,0,0,0,0,0,0,0,0,0,0,0,0,0,0,0,0,0,0,0,0,0,0,0,0,0,0,0,0,0,0,0,0],"split_type":[0,0,0,0,0,0,0,0,0,0,0,0,0,0,0,0,0,0,0,0,0,0,0,0,0,0,0,0,0,0,0,0,0,0,0,0,0,0,0,0,0,0,0,0,0,0,0,0,0,0,0,0,0],"sum_hessian":[1.9361399E3,1.3604371E3,5.7570276E2,1.1565442E3,2.0389294E2,6.1690292E1,5.1401245E2,1.398835E2,1.0166607E3,8.453919E1,1.1935375E2,3.8315254E1,2.3375038E1,4.7164334E2,4.236913E1,9.5204254E1,4.4679245E1,7.2376475E0,1.00942303E3,1.3007579E1,7.153162E1,1.7402998E1,1.0195075E2,4.0322443E2,6.8418915E1,8.364744E1,1.155681E1,2.0839745E1,2.38395E1,9.9765497E2,1.1768065E1,2.23651E1,4.9166515E1,7.586222E1,2.6088533E1,2.43046E1,4.411431E1,7.309723E1,1.0550211E1,1.5045761E1,5.7939835E0,1.3948645E1,9.890857E0,8.889375E2,1.08717445E2,8.96907E0,1.339603E1,8.8656645E0,4.030085E1,5.5387054E1,2.0475166E1,1.0623732E1,1.5464803E1],"tree_param":{"num_deleted":"0","num_feature":"1","num_nodes":"53","size_leaf_vector":"1"}},{"base_weights":[-2.7581558E-2,-3.7340438E-1,7.7377486E-1,-4.3652013E-1,-4.468925E-2,3.8713086E-1,8.1430674E-1,-9.3529665E-1,-4.2194194E-1,1.6867245E-2,-6.2577136E-2,1.5740534E-2,2.4056967E-2,8.2516164E-1,3.4979578E-2,-6.196791E-1,-5.401672E-2,3.5577077E-1,-4.332515E-1,-4.8438918E-2,-3.4301355E-2,7.99024E-1,9.527251E-1,-4.816986E-2,-3.7916165E-3,8.269031E-3,2.408886E-2,-4.2325702E-1,-7.949638E-1,5.4877188E-2,-1.3372707E-1,8.356193E-1,3.6254637E-2,5.4763943E-2,4.2424917E-2,-2.1380587E-2,1.021912E-2,-5.3353466E-2,-3.0170629E-2,-9.865931E-4,2.1216352E-2,-1.5658235E-2,4.0035746E-3,4.0563207E-2,5.0046433E-2],"categories":[],"categories_nodes":[],"categories_segments":[],"categories_sizes":[],"default_left":[0,0,0,0,0,0,0,0,0,0,0,0,0,0,0,0,0,0,0,0,0,0,0,0,0,0,0,0,0,0,0,0,0,0,0,0,0,0,0,0,0,0,0,0,0],"id":30,"left_children":[1,3,5,7,9,11,13,15,17,-1,19,-1,-1,21,-1,23,-1,25,27,-1,29,31,33,-1,-1,-1,-1,35,37,39,41,43,-1,-1,-1,-1,-1,-1,-1,-1,-1,-1,-1,-1,-1],"loss_changes":[5.3311206E2,2.7859253E1,8.772949E0,7.801361E0,1.5078871E0,2.3559189E-1,7.522583E-2,7.581959E-1,9.802856E0,0E0,5.3137646E0,0E0,0E0,8.1625366E-1,0E0,2.20088E0,0E0,3.10719E-1,3.5740662E0,0E0,1.8107923E0,4.7323608E-1,1.8884277E-1,0E0,0E0,